2.621229505166411400e-03,1.628233934752643108e-03,1.402124646119773388e-03,-5.964341689832508564e-04,-4.208597529213875532e-04,2.305396832525730133e-03,7.012537680566310883e-04,-9.225034737028181553e-04,2.414148533716797829e-03,3.099757479503750801e-03,-4.420295590534806252e-04,-1.280332566238939762e-03,-2.912021242082118988e-03,2.898808801546692848e-03,1.272645196877419949e-03,-2.846028190106153488e-03,-2.165203448385000229e-03,1.973918639123439789e-03,-1.564642880111932755e-03,1.389383454807102680e-03,3.094606567174196243e-03,-2.336278521397616714e-05,2.263406524434685707e-03,1.375035266391932964e-03,1.068228855729103088e-03,2.361542079597711563e-03,6.217373302206397057e-04,2.988298423588275909e-03,-1.156288199126720428e-03,-1.121083740144968033e-03,-8.556275133742019534e-05,1.881893491372466087e-03,2.814474282786250114e-03,1.838052645325660706e-03,1.543319900520145893e-03,9.488709038123488426e-04,-8.430865709669888020e-04,-1.360737835057079792e-03,1.158668543212115765e-03,6.049132207408547401e-04,4.781380412168800831e-04,2.497321227565407753e-03,2.537260763347148895e-03,2.292265882715582848e-03,-1.584575395099818707e-03,-5.110644269734621048e-04,1.320973271504044533e-03,2.243210561573505402e-03,1.062094543158309534e-05,2.157266018912196159e-03,7.434823783114552498e-04,1.385189709253609180e-03,2.251423895359039307e-03,-6.298059597611427307e-04,-1.546152867376804352e-03,-7.858735625632107258e-04,-1.534649345558136702e-04,-1.815159455873072147e-03,-2.663945313543081284e-03,2.072105649858713150e-03,-2.944855950772762299e-03,-1.760903047397732735e-03,-1.953212078660726547e-03,1.424524234607815742e-03,4.787450307048857212e-04,-3.148998832330107689e-03,-1.010640524327754974e-03,2.752210712060332298e-03,-1.451411168090999126e-03,3.110530553385615349e-03,-1.678439555689692497e-03,2.790969796478748322e-03,2.262940164655447006e-03,-4.956219345331192017e-05,1.259095035493373871e-03,2.376144402660429478e-04,-2.750644460320472717e-03,-1.351627404801547527e-03,-6.503546610474586487e-04,-1.706514623947441578e-03,-3.038397757336497307e-03,2.582540269941091537e-03,2.704454353079199791e-03,-1.057183020748198032e-03,-2.666095271706581116e-03,2.391689456999301910e-03,1.532261376269161701e-03,-3.897742426488548517e-04,-2.029674593359231949e-03,6.985441723372787237e-05,-3.023569472134113312e-03,1.216205302625894547e-03,7.123105460777878761e-04,5.133627564646303654e-04,-2.083733910694718361e-03,1.421023043803870678e-03,2.095660660415887833e-03,-2.831280231475830078e-03,-1.490191090852022171e-03,1.928151468746364117e-03,-2.466946374624967575e-03,-5.593888636212795973e-05,-6.934019620530307293e-05,-1.729604904539883137e-03,-1.550781074911355972e-03,-1.236426323885098100e-04,-1.112102763727307320e-03,3.080713562667369843e-03,-2.978044794872403145e-03,3.020130097866058350e-03,-3.988017851952463388e-04,-2.112424932420253754e-03,-1.663339789956808090e-03,-1.081735128536820412e-03,5.706942174583673477e-04,2.389458240941166878e-03,2.482146490365266800e-03,-9.333525085821747780e-04,6.415462121367454529e-04,9.866389445960521698e-04,-9.270465234294533730e-04,-2.621263032779097557e-03,2.188697457313537598e-03,2.048521128017455339e-04,-5.950740887783467770e-04,-3.963174240197986364e-04,6.106300279498100281e-04,9.811300551518797874e-04
2.551855985075235367e-03,-2.717152237892150879e-03,2.515136497095227242e-03,3.120432142168283463e-03,2.103499369695782661e-03,-2.622004598379135132e-03,-2.747673541307449341e-03,2.391686895862221718e-03,1.250100787729024887e-03,1.163164153695106506e-03,-1.722046756185591221e-03,2.570860320702195168e-03,-3.080845926888287067e-04,1.797652337700128555e-03,1.431978889741003513e-03,-2.430272055789828300e-03,-1.738814869895577431e-03,-1.749887269397731870e-05,1.562315504997968674e-03,2.479196293279528618e-03,8.816758636385202408e-04,2.950288821011781693e-03,2.339256461709737778e-03,2.122574020177125931e-03,1.266242587007582188e-03,2.207124780397862196e-04,-7.238181424327194691e-04,-1.210866961628198624e-03,-1.473491778597235680e-03,-2.857341132767032832e-05,-9.217124897986650467e-04,2.365009160712361336e-03,-2.814371371641755104e-03,3.094423096626996994e-03,-1.547845313325524330e-03,-1.594070345163345337e-03,-1.017942442558705807e-03,6.219582282938063145e-04,-7.797959842719137669e-04,1.423300273017957807e-04,9.017014526762068272e-04,-2.239595633000135422e-03,-6.863149465061724186e-04,-1.894321030704304576e-04,1.853229827247560024e-03,-2.993528687511570752e-05,-1.708786585368216038e-03,-4.214342043269425631e-04,-1.199812628328800201e-03,-1.305870478972792625e-03,-9.883223101496696472e-04,-4.920100909657776356e-04,-2.113762544468045235e-03,-1.083307433873414993e-03,9.820970008149743080e-04,1.366382581181824207e-03,1.534948009066283703e-03,-1.139691099524497986e-03,6.111203110776841640e-04,-2.444374840706586838e-03,-2.045648638159036636e-03,1.575967995449900627e-03,-1.876346068456768990e-03,-1.485740533098578453e-03,1.808849629014730453e-04,-2.330465242266654968e-03,-2.238322049379348755e-03,2.338605932891368866e-03,4.140811506658792496e-04,2.514535561203956604e-03,-3.002837533131241798e-03,-1.659376430325210094e-03,2.295278245583176613e-04,-7.047170074656605721e-04,5.765422247350215912e-04,2.493072068318724632e-03,2.874056342989206314e-03,-1.817917800508439541e-03,2.397370757535099983e-03,-1.671105972491204739e-03,1.119363820180296898e-03,2.901128027588129044e-03,-2.489879727363586426e-03,-1.976157072931528091e-04,-2.247914206236600876e-03,-2.491841558367013931e-03,1.393912825733423233e-03,-1.919909846037626266e-03,1.823031576350331306e-03,-2.298920881003141403e-03,-2.789461053907871246e-03,5.326582468114793301e-04,2.503466559574007988e-03,-1.898001792142167687e-04,2.496108179911971092e-03,1.671135891228914261e-03,-1.516531687229871750e-03,-1.200970727950334549e-03,1.120666973292827606e-03,2.371178707107901573e-03,-1.495696255005896091e-03,2.345371292904019356e-03,1.017160713672637939e-03,-2.131178975105285645e-03,3.151811193674802780e-03,2.612015232443809509e-03,1.141692744567990303e-03,-2.421669661998748779e-03,-2.521280664950609207e-03,1.119159278459846973e-03,1.399424945702776313e-04,2.746311947703361511e-03,-7.635520887561142445e-04,2.310278126969933510e-03,-2.816634252667427063e-03,1.734018558636307716e-03,1.211652881465852261e-03,-2.492561703547835350e-03,-5.248883971944451332e-04,5.838153301738202572e-04,-2.887637121602892876e-03,1.351570943370461464e-03,-2.285488182678818703e-03,5.252708797343075275e-04,2.278211526572704315e-03,-8.835738408379256725e-04,9.921184973791241646e-04,2.902090782299637794e-03
-1.723048277199268341e-03,-2.842072164639830589e-03,6.923049222677946091e-04,9.179079206660389900e-04,-1.415443024598062038e-03,2.345871180295944214e-03,2.964837476611137390e-03,-2.344971289858222008e-03,-1.463224645704030991e-03,-1.077099514077417552e-04,-1.015496440231800079e-03,2.288870280608534813e-03,2.501228591427206993e-03,-1.494520809501409531e-03,7.308670319616794586e-04,-8.380904910154640675e-04,-2.181213116273283958e-03,-2.383407205343246460e-03,-1.350591890513896942e-03,-2.100630372297018766e-04,-1.430861535482108593e-03,2.855269471183419228e-03,-7.693040970480069518e-05,-1.656516338698565960e-03,-1.798077370040118694e-03,2.765598474070429802e-03,1.059991889633238316e-03,2.714613918215036392e-03,-2.190712373703718185e-03,2.201011404395103455e-03,-1.233448274433612823e-03,-3.475130652077496052e-04,1.628439291380345821e-03,-2.651857677847146988e-03,8.535108063369989395e-04,-2.776495181024074554e-03,2.951155649498105049e-03,2.903468674048781395e-03,1.323091215454041958e-03,8.721685298951342702e-05,6.824099691584706306e-04,2.618466038256883621e-03,1.782155130058526993e-03,1.197278543259017169e-04,-2.022037282586097717e-03,-2.397086238488554955e-03,2.570374403148889542e-03,-8.019437664188444614e-04,1.635726192034780979e-03,-8.601938025094568729e-04,-1.580820884555578232e-03,-3.046034602448344231e-03,-3.009608481079339981e-03,-2.523546107113361359e-03,2.465914469212293625e-03,8.540650742361322045e-05,-2.291039796546101570e-03,-7.866178057156503201e-04,1.985532930120825768e-03,1.552491099573671818e-03,-7.086744299158453941e-04,-1.697686151601374149e-03,1.166893751360476017e-03,-1.153619086835533381e-04,-1.297903829254209995e-03,-6.807796889916062355e-04,1.209721085615456104e-03,1.591870095580816269e-03,1.146350055932998657e-03,-2.912198891863226891e-03,2.659782301634550095e-03,-2.930294955149292946e-03,2.432495355606079102e-03,-1.561572775244712830e-03,-1.408612355589866638e-03,-3.066664794459939003e-03,1.310540712438523769e-03,-1.754637109115719795e-03,-1.989271026104688644e-03,2.920789411291480064e-03,-3.051976207643747330e-03,-4.641354316845536232e-04,1.414920785464346409e-03,3.095284104347229004e-03,1.499275822425261140e-04,2.916641533374786377e-04,2.604903187602758408e-03,-2.574750687927007675e-03,-1.076803891919553280e-03,-5.492892232723534107e-04,5.426286370493471622e-04,-2.431093016639351845e-03,-1.388710807077586651e-03,1.969050848856568336e-03,-8.690890535945072770e-05,-3.491728857625275850e-04,3.271262103226035833e-04,2.527490025386214256e-03,-6.774613284505903721e-04,-2.496426925063133240e-03,1.634390442632138729e-03,1.760786166414618492e-03,-1.143557601608335972e-03,-1.922285417094826698e-03,2.101896097883582115e-03,-6.542050978168845177e-04,1.486443565227091312e-03,-9.609018452465534210e-04,-2.664628671482205391e-03,-1.638089772313833237e-03,1.007234910503029823e-03,8.574903476983308792e-04,-8.529042243026196957e-04,2.144230296835303307e-03,-1.871694228611886501e-03,1.957761822268366814e-03,-1.211131573654711246e-03,-3.370137419551610947e-04,1.109544653445482254e-03,1.058941939845681190e-03,6.935665733180940151e-04,7.055685855448246002e-04,1.683446462266147137e-03,2.187667880207300186e-03,-1.277356408536434174e-03,-1.397074083797633648e-03,3.155231010168790817e-03,-2.013021847233176231e-03
1.865622354671359062e-03,-2.260606968775391579e-03,2.483068732544779778e-03,-2.706517931073904037e-03,1.195866614580154419e-03,7.397921290248632431e-04,-3.837735857814550400e-04,-1.863743644207715988e-03,2.045512199401855469e-03,-1.149562420323491096e-03,1.256139716133475304e-03,-8.157130214385688305e-04,1.224094768986105919e-03,-1.065196236595511436e-03,1.600860501639544964e-03,1.248809508979320526e-03,3.952377883251756430e-04,4.674778319895267487e-04,-2.544020069763064384e-03,-3.763214335776865482e-04,-1.077336724847555161e-03,-2.572068478912115097e-04,2.286602742969989777e-03,1.500221551395952702e-03,5.195724079385399818e-04,-1.365659059956669807e-03,2.565297763794660568e-03,2.279990585520863533e-03,-3.652697487268596888e-04,-1.826705760322511196e-03,2.018832834437489510e-03,-2.307319315150380135e-03,6.594014703296124935e-04,-7.346358033828437328e-04,7.467144168913364410e-04,-8.625976042822003365e-04,2.417515730485320091e-03,2.111727371811866760e-03,-1.686551258899271488e-03,-6.028992356732487679e-05,7.994562038220465183e-04,1.087805139832198620e-03,-8.320553461089730263e-04,-9.077638196686166339e-07,-1.004668418318033218e-03,2.811470476444810629e-04,1.995292259380221367e-03,1.597063266672194004e-03,-2.871417207643389702e-03,2.088619396090507507e-03,8.485895232297480106e-04,-2.344745211303234100e-03,2.721537835896015167e-03,7.054437301121652126e-04,-4.792415420524775982e-04,1.233284594491124153e-03,-1.259978162124752998e-03,1.460609346395358443e-04,-6.754262140020728111e-04,-2.374785253778100014e-03,1.513658498879522085e-04,-1.965226372703909874e-03,2.518967958167195320e-04,2.112865680828690529e-03,-4.455853559193201363e-05,1.267703133635222912e-03,1.570325577631592751e-03,-1.058005378581583500e-03,-2.611380768939852715e-03,-1.871189801022410393e-03,1.147487782873213291e-03,7.129109144443646073e-05,-2.411293098703026772e-03,-9.814752265810966492e-04,-2.337859943509101868e-03,-1.510039437562227249e-03,-1.264464110136032104e-03,1.901045208796858788e-03,-1.063416362740099430e-03,3.868807689286768436e-04,2.793068997561931610e-03,-9.248973219655454159e-04,2.397095318883657455e-03,2.794105326756834984e-03,-5.624287878163158894e-04,2.996980911120772362e-03,-1.883646589703857899e-03,-2.422299236059188843e-03,2.213327214121818542e-03,-2.988298423588275909e-03,2.593169687315821648e-03,5.729449549107812345e-05,1.050706836394965649e-03,6.520751048810780048e-04,-2.840063534677028656e-03,-1.957670465344563127e-04,2.352719428017735481e-03,-6.726441642967984080e-05,-2.832193626090884209e-03,1.836584997363388538e-03,2.081018639728426933e-03,2.422910882160067558e-03,-4.252728467690758407e-05,-2.633991651237010956e-03,4.174468631390482187e-04,-2.485607517883181572e-03,-2.948692766949534416e-03,1.191726187244057655e-03,1.157502993009984493e-03,4.287410411052405834e-04,9.793401695787906647e-04,-1.521909143775701523e-04,-1.212660223245620728e-03,1.700109569355845451e-03,2.612571232020854950e-03,3.040594281628727913e-03,-2.563088899478316307e-03,-2.320538769708946347e-04,-1.231853151693940163e-03,1.281594042666256428e-03,3.399856213945895433e-04,-1.334780245088040829e-04,1.997386105358600616e-03,-1.372262602671980858e-03,-3.069554222747683525e-03,1.185805769637227058e-03,1.866801874712109566e-03,2.751721069216728210e-03
2.094910450978204608e-04,2.415837487205862999e-03,1.754818251356482506e-03,1.646054792217910290e-03,2.605794463306665421e-03,-2.450814703479409218e-03,2.705963561311364174e-03,2.189561200793832541e-04,-2.348508220165967941e-03,1.211796537972986698e-03,2.006226219236850739e-03,-5.503988722921349108e-05,-2.054442884400486946e-03,2.401509787887334824e-03,-8.870008168742060661e-04,-1.423203852027654648e-03,-6.855222454760223627e-05,1.928181038238108158e-03,1.738094375468790531e-03,3.059575567021965981e-03,2.072781091555953026e-03,-8.990662172436714172e-05,1.370045007206499577e-03,9.422935545444488525e-04,1.190885435789823532e-03,-1.701940898783504963e-03,1.483274972997605801e-03,2.174400025978684425e-03,7.241867715492844582e-04,3.264328988734632730e-04,-4.017700121039524674e-05,-2.842847490683197975e-03,-9.115850552916526794e-04,-2.716529183089733124e-03,-2.984276507049798965e-03,1.771107781678438187e-03,-2.158666262403130531e-03,-1.568518928252160549e-03,-6.342786946333944798e-04,-1.975671388208866119e-03,2.806726610288023949e-03,1.402476336807012558e-03,5.053421045886352658e-05,5.010570166632533073e-04,-3.044098382815718651e-03,-3.118937136605381966e-03,-8.642883622087538242e-04,-3.132993588224053383e-03,-1.924342592246830463e-03,-2.040143124759197235e-03,1.459429273381829262e-03,-2.239938825368881226e-03,-2.753301756456494331e-03,1.991687458939850330e-04,1.328945392742753029e-03,2.698516007512807846e-03,-2.757010050117969513e-03,4.930491559207439423e-04,-5.994769162498414516e-04,-1.615694025531411171e-03,-2.707762905629351735e-05,-1.674399594776332378e-03,-2.702888334169983864e-03,-3.013669047504663467e-03,-1.801046892069280148e-03,-2.347339875996112823e-03,-1.276609953492879868e-03,9.578703902661800385e-04,1.404718030244112015e-03,3.645331889856606722e-05,-1.120295026339590549e-03,-1.425914117135107517e-03,-6.813137442804872990e-04,-7.368799997493624687e-04,2.040999475866556168e-03,7.806748617440462112e-04,-2.276263432577252388e-03,-2.207510871812701225e-03,-2.413991373032331467e-03,-3.128768410533666611e-03,-8.534474181942641735e-04,2.836277475580573082e-03,9.810172487050294876e-04,1.073862193152308464e-03,-1.542479614727199078e-03,-2.061127917841076851e-03,4.398551245685666800e-04,2.928470959886908531e-03,2.534669125452637672e-03,2.246977994218468666e-03,2.240399364382028580e-03,2.455459907650947571e-03,-7.480588974431157112e-04,-1.005282974801957607e-03,-2.534907544031739235e-03,2.226795069873332977e-03,2.438228577375411987e-03,8.650888921692967415e-04,-1.324067241512238979e-03,2.967573003843426704e-03,1.044810866005718708e-03,1.305004581809043884e-03,-2.172920852899551392e-03,2.389392117038369179e-03,-1.438947860151529312e-03,1.839102827943861485e-03,2.905655419453978539e-03,-2.193247433751821518e-03,5.870269378647208214e-04,1.025594654493033886e-03,2.580470871180295944e-03,-3.055240493267774582e-03,2.765442710369825363e-03,2.726557431742548943e-03,-2.521285787224769592e-03,1.782006700523197651e-03,-2.282085828483104706e-03,2.011212287470698357e-03,-1.713186851702630520e-03,2.652701688930392265e-03,-1.804979983717203140e-03,-1.174881588667631149e-03,1.286798622459173203e-03,1.517775934189558029e-03,8.840146474540233612e-04,1.050094491802155972e-03,1.573117915540933609e-04,-3.023156197741627693e-03
-2.081619808450341225e-03,2.291284268721938133e-03,1.126967836171388626e-03,-1.287343795411288738e-03,-9.286107379011809826e-04,1.321187010034918785e-03,1.678106258623301983e-03,2.785644319374114275e-04,-2.828388707712292671e-03,-1.262184698134660721e-03,-2.417871030047535896e-03,-1.106262090615928173e-03,2.038502832874655724e-03,5.862147081643342972e-04,9.681822266429662704e-04,-4.745364421978592873e-04,-5.013177287764847279e-04,-1.213535200804471970e-03,2.101992256939411163e-03,2.038188744336366653e-03,5.011773901060223579e-04,-1.474595628678798676e-04,1.870340551249682903e-03,-1.864125370047986507e-03,-2.312764758244156837e-03,-8.504245670337695628e-06,-1.829901593737304211e-03,-2.460523974150419235e-03,2.847930649295449257e-03,-1.335855224169790745e-03,-2.843725727871060371e-03,-1.271508983336389065e-03,2.651263959705829620e-03,1.512220827862620354e-03,-1.567089231684803963e-03,2.775493077933788300e-03,-1.816814881749451160e-03,2.151464344933629036e-03,1.327734498772770166e-04,-7.581751560792326927e-04,1.689318800345063210e-03,-2.111302455887198448e-03,1.861888100393116474e-03,-5.766428075730800629e-04,2.814783947542309761e-04,1.946101547218859196e-04,-4.486695688683539629e-04,2.311472053406760097e-04,2.210066420957446098e-03,1.929401885718107224e-03,2.481685252860188484e-03,2.522780559957027435e-03,-6.822976283729076385e-04,-2.354248194023966789e-03,-3.039897885173559189e-03,1.883304677903652191e-03,2.094112103804945946e-03,-2.302735345438122749e-03,2.043412066996097565e-03,1.432716613635420799e-03,-2.554805949330329895e-03,2.336336765438318253e-03,1.103357295505702496e-03,-6.958942976780235767e-04,4.772378888446837664e-04,1.268618274480104446e-03,-2.226959215477108955e-03,3.098803805187344551e-03,-1.491737901233136654e-03,1.730837044306099415e-03,3.062367904931306839e-03,1.661221904214471579e-04,-2.382425358518958092e-03,-3.679731744341552258e-04,1.757946447469294071e-03,2.851783297955989838e-03,1.859006006270647049e-04,-3.222451778128743172e-04,1.708147348836064339e-03,-5.382229574024677277e-04,-2.619960112497210503e-03,1.097943968488834798e-04,-2.775781089439988136e-03,2.484833530616015196e-04,2.707804087549448013e-03,1.217770972289144993e-03,-1.745491870678961277e-03,-1.650674850679934025e-03,1.151831311290152371e-04,1.752601121552288532e-03,1.167187700048089027e-03,3.453656390774995089e-04,-2.697639320103917271e-05,5.091835046187043190e-04,2.327542752027511597e-03,2.483507385477423668e-03,1.343907322734594345e-03,-2.221631119027733803e-03,-1.592692220583558083e-03,3.894119290634989738e-04,2.509290818125009537e-03,-1.764387125149369240e-03,-2.286632312461733818e-03,-6.699820514768362045e-04,1.711432705633342266e-03,-1.767465379089117050e-03,2.658462908584624529e-04,1.771142822690308094e-03,-2.584773348644375801e-03,2.632619289215654135e-04,2.553574508056044579e-03,-1.722528133541345596e-03,2.882738830521702766e-03,2.279022883158177137e-04,5.887542502023279667e-04,2.812915015965700150e-03,2.427758648991584778e-03,2.042856998741626740e-03,-1.096995081752538681e-03,-7.060709176585078239e-04,-1.263740123249590397e-03,-1.975602004677057266e-03,-2.742487122304737568e-04,-2.276015002280473709e-03,-1.479240250773727894e-03,-7.700769929215312004e-04,-2.441355260089039803e-03,2.975811716169118881e-03
-1.859077368862926960e-03,1.850950997322797775e-03,2.431700006127357483e-03,-1.690652570687234402e-03,2.730206586420536041e-03,5.639717564918100834e-04,1.930689206346869469e-03,2.399922581389546394e-03,1.029423656291328371e-04,2.403119113296270370e-03,-1.951697515323758125e-03,7.424767682095989585e-05,-7.103671086952090263e-04,-2.643951447680592537e-04,9.483855683356523514e-04,-4.802109033335000277e-04,6.353727076202630997e-04,6.071609095670282841e-04,1.121404115110635757e-03,-3.086806740611791611e-03,5.667118821293115616e-04,-2.389964647591114044e-03,5.861267563886940479e-04,2.961959689855575562e-03,2.750829560682177544e-03,-2.531528880354017019e-04,-1.827410189434885979e-03,-8.197929128073155880e-04,-2.234104555100202560e-03,-2.026205649599432945e-03,-4.026655515190213919e-04,-1.393675804138183594e-03,-2.709533728193491697e-04,-2.585630165413022041e-03,-1.336744637228548527e-03,1.577357295900583267e-03,-1.082257251255214214e-03,1.887441147118806839e-03,-2.237325534224510193e-04,1.480065868236124516e-03,-2.866042777895927429e-03,-9.419428533874452114e-04,7.486590184271335602e-04,3.070204751566052437e-03,3.047916106879711151e-03,1.576338661834597588e-03,-2.645904198288917542e-03,2.002823865041136742e-03,-1.770381932146847248e-03,-2.978737931698560715e-03,6.261261296458542347e-05,1.934255124069750309e-03,-3.027901286259293556e-03,-1.353741507045924664e-03,1.578709692694246769e-03,2.273326274007558823e-03,2.234071493148803711e-03,-3.052633255720138550e-03,-1.736331381835043430e-03,-2.285024384036660194e-03,-1.390383928082883358e-03,-1.150175812654197216e-03,2.506367629393935204e-03,1.996863400563597679e-03,1.546289306133985519e-03,1.588196260854601860e-03,-9.722220711410045624e-04,9.924505138769745827e-04,-2.387782325968146324e-03,-2.812930149957537651e-03,1.620481023564934731e-03,-1.981849345611408353e-05,1.251516863703727722e-03,1.109154778532683849e-03,1.154710538685321808e-03,2.365995896980166435e-03,2.110872184857726097e-03,-2.971689216792583466e-03,2.048547379672527313e-03,2.053655916824936867e-03,2.600563922896981239e-03,7.857133168727159500e-04,-4.726633487734943628e-04,5.900870892219245434e-04,3.365735465195029974e-04,1.483203377574682236e-04,5.098881665617227554e-04,1.851910608820617199e-03,1.856486313045024872e-03,-8.327330579049885273e-04,1.334257831331342459e-04,-6.680406513623893261e-04,5.965764285065233707e-04,3.087422577664256096e-03,-1.687028561718761921e-03,1.290046144276857376e-03,3.119705244898796082e-03,-9.589427500031888485e-04,-1.158104976639151573e-03,2.903598826378583908e-03,4.706698528025299311e-04,1.819949946366250515e-03,1.064750016666948795e-03,2.775942208245396614e-03,-1.751101110130548477e-03,-2.390977693721652031e-03,7.707290351390838623e-04,-1.845489139668643475e-03,-1.579892268637195230e-04,-2.636687830090522766e-03,2.415743190795183182e-03,-2.817277796566486359e-03,-1.787600922398269176e-03,1.010904321447014809e-03,-3.753029450308531523e-04,2.876008860766887665e-03,-6.013953243382275105e-04,-1.898603164590895176e-03,1.945269992575049400e-03,-2.571191638708114624e-03,2.613906748592853546e-03,1.475806464441120625e-03,-2.928731497377157211e-03,1.140469219535589218e-03,-3.043832955881953239e-03,-1.389392651617527008e-03,2.323388820514082909e-03,-3.591674612835049629e-04
-1.669029588811099529e-03,1.672071666689589620e-04,-3.153849393129348755e-03,-1.812855014577507973e-03,-1.026732847094535828e-03,-6.286111893132328987e-04,-2.251566620543599129e-03,-3.482503234408795834e-04,2.093483926728367805e-03,-1.927481614984571934e-03,2.089335815981030464e-03,-2.333224547328427434e-04,2.772985491901636124e-03,2.475956920534372330e-03,2.676658332347869873e-03,-5.114822997711598873e-04,1.820490346290171146e-03,-1.393390819430351257e-03,2.591678639873862267e-03,7.861496997065842152e-04,1.970756100490689278e-03,2.574938116595149040e-03,-2.191415755078196526e-03,-3.055209759622812271e-03,2.927937544882297516e-03,-1.201098435558378696e-03,2.889781259000301361e-03,-2.608177950605750084e-03,3.001975361257791519e-03,2.162244869396090508e-03,2.768855541944503784e-03,-2.309024566784501076e-03,2.019866369664669037e-03,1.903019030578434467e-03,-1.645052543608471751e-04,-2.111595124006271362e-03,-2.301051747053861618e-03,-1.292090280912816525e-03,-6.753224879503250122e-04,1.880675903521478176e-03,1.664157840423285961e-03,-3.210130089428275824e-04,1.029602251946926117e-03,-1.864697434939444065e-03,-5.685948417522013187e-04,5.795284596388228238e-05,1.697840518318116665e-03,-2.456539659760892391e-04,6.416974938474595547e-04,2.214943058788776398e-03,-1.660096691921353340e-03,7.187870796769857407e-04,2.498841844499111176e-03,2.575567224994301796e-03,2.612746320664882660e-03,-2.461002441123127937e-03,-5.971739301458001137e-04,1.994213089346885681e-04,-1.184078864753246307e-03,1.532489433884620667e-03,-2.836429979652166367e-03,-1.590060302987694740e-03,-1.114640734158456326e-03,9.512001997791230679e-04,2.982195932418107986e-03,1.521440572105348110e-03,1.423709443770349026e-03,-2.018096391111612320e-03,2.755341120064258575e-03,-2.246215008199214935e-03,-2.819230081513524055e-03,-2.151444787159562111e-03,4.061265499331057072e-04,2.669651759788393974e-03,-1.024933764711022377e-03,-2.613843418657779694e-03,2.427311846986413002e-03,1.540667493827641010e-03,2.372833114350214601e-04,-1.881608390249311924e-03,-6.063415203243494034e-04,-8.525353623554110527e-04,-1.439680112525820732e-03,6.183151272125542164e-04,-2.208940219134092331e-03,-2.030006144195795059e-03,1.685921219177544117e-03,2.046202542260289192e-03,-2.830856014043092728e-03,2.444353653118014336e-03,-2.321670297533273697e-03,-2.894244389608502388e-03,-1.968997064977884293e-03,1.991145778447389603e-03,7.210670737549662590e-04,-2.656259108334779739e-03,-1.158012193627655506e-03,-7.789831142872571945e-04,6.519355811178684235e-04,-2.623937791213393211e-03,-2.452071290463209152e-03,3.757076046895235777e-04,2.456326037645339966e-03,-2.118059346685186028e-04,-2.361565362662076950e-03,1.683134905761107802e-04,7.715412066318094730e-04,2.550932345911860466e-03,-1.040420378558337688e-03,-1.179829705506563187e-03,2.160346368327736855e-03,-1.846570638008415699e-03,2.692844427656382322e-04,7.232031202875077724e-04,3.828862973023205996e-04,6.123823113739490509e-04,-6.433575763367116451e-04,2.565240429248660803e-04,-8.307097596116364002e-04,-4.826841177418828011e-04,-2.404188853688538074e-04,-2.428306266665458679e-03,1.574370311573147774e-03,2.299799089087173343e-04,2.349952701479196548e-03,-1.304778386838734150e-03,1.806124928407371044e-03,-1.087570562958717346e-04
2.096398733556270599e-03,-1.141389366239309311e-03,-2.741464413702487946e-04,-1.109101809561252594e-03,-2.242221264168620110e-03,2.631969691719859838e-04,-2.881292486563324928e-03,1.284439349547028542e-03,-9.902316378429532051e-04,2.568602329120039940e-03,-2.394461305812001228e-03,1.595056848600506783e-03,-2.557363186497241259e-04,-1.632029772736132145e-03,1.782985520549118519e-03,3.091980470344424248e-03,-6.433749804273247719e-04,1.871917513199150562e-03,1.514275092631578445e-03,2.055974677205085754e-03,-1.232210895977914333e-03,-1.660276320762932301e-03,1.690693199634552002e-03,-7.929020212031900883e-04,9.871206711977720261e-04,-7.754028774797916412e-04,2.834302838891744614e-03,-2.986149629577994347e-04,1.250834553502500057e-03,-2.066369168460369110e-03,8.560566930100321770e-04,-1.948894467204809189e-03,1.020813127979636192e-03,-4.315334954299032688e-04,-2.120975637808442116e-03,-2.447204431518912315e-03,6.275933992583304644e-05,2.120452467352151871e-03,2.550984267145395279e-03,-2.328759757801890373e-03,-3.409122582525014877e-04,-1.659509725868701935e-03,-1.390220946632325649e-03,3.426854382269084454e-04,-9.929693769663572311e-04,-2.601686166599392891e-03,-4.895274469163268805e-05,-2.476089634001255035e-03,-1.067398989107459784e-04,2.028548158705234528e-03,-2.142920391634106636e-03,-3.750254109036177397e-04,2.524275565519928932e-03,-2.028342103585600853e-03,2.186406491091474891e-04,2.002790803089737892e-03,-2.268669428303837776e-03,-1.797871198505163193e-03,2.717904513701796532e-03,1.461510895751416683e-03,1.398279680870473385e-03,-1.254174662790319417e-06,1.221530837938189507e-03,4.794882261194288731e-05,2.690639579668641090e-03,-1.352962339296936989e-03,9.059450239874422550e-04,-1.055046916007995605e-03,2.949230372905731201e-03,8.008243748918175697e-04,-2.150439424440264702e-03,-1.871734421001747251e-04,1.456337398849427700e-03,1.260914024896919727e-03,-1.835789647884666920e-03,1.958333887159824371e-03,-1.315177534706890583e-03,1.443806831957772374e-04,3.767586604226380587e-04,-2.919827355071902275e-03,-1.378334825858473778e-03,8.723863866180181503e-04,1.731124124489724636e-03,-2.811921993270516396e-03,1.030829385854303837e-03,2.499128459021449089e-03,1.254200702533125877e-03,-2.780095906928181648e-03,-9.845735039561986923e-04,2.404507482424378395e-03,3.069793805480003357e-03,6.856257095932960510e-04,-2.615409612189978361e-04,-1.129432464949786663e-03,-5.688072997145354748e-04,-3.462871536612510681e-04,-7.727604825049638748e-04,2.198134548962116241e-03,-1.536721247248351574e-03,7.267441833391785622e-04,5.788985872641205788e-04,7.185959257185459137e-04,-1.556188799440860748e-03,-1.005774713121354580e-03,-3.835592942778021097e-04,-2.004741400014609098e-04,-2.992462832480669022e-03,-3.084653289988636971e-03,-2.096520736813545227e-03,2.126228529959917068e-03,-1.260584918782114983e-03,-5.639166920445859432e-04,-3.770855546463280916e-04,-7.345846970565617085e-04,-1.166473157354630530e-04,3.049656152143143117e-05,-1.592174870893359184e-03,2.738695358857512474e-03,2.564399270340800285e-03,-1.378443790599703789e-03,4.995384369976818562e-04,1.522260950878262520e-03,3.097365377470850945e-03,-1.441572327166795731e-03,6.525760400108993053e-04,-2.255231607705354691e-03,3.090363461524248123e-04,-3.114869585260748863e-03
1.992914592847228050e-03,6.007751217111945152e-04,2.734005451202392578e-03,-1.378053333610296249e-03,-8.079264080151915550e-05,1.232022186741232872e-03,-1.959285509656183422e-05,-5.190965021029114723e-04,4.310010699555277824e-04,-1.672372745815664530e-04,4.310832591727375984e-04,7.526490371674299240e-04,-1.835284056141972542e-03,1.741562853567302227e-03,-2.311622258275747299e-03,-2.831082325428724289e-03,1.410244381986558437e-03,-5.759616615250706673e-04,-2.883764216676354408e-03,-2.886538393795490265e-03,-3.882309829350560904e-05,-1.214938936755061150e-03,-2.941004931926727295e-03,8.759128977544605732e-04,-7.229560287669301033e-04,2.093894639983773232e-03,1.078146160580217838e-03,2.986212493851780891e-03,-2.279380714753642678e-04,2.531911944970488548e-03,1.759236911311745644e-03,-3.012907924130558968e-03,-9.257733472622931004e-04,-1.107246134779416025e-05,-2.259141067042946815e-03,-2.955670235678553581e-03,2.998843090608716011e-03,1.188553069368936121e-04,9.526110952720046043e-04,-1.522164093330502510e-03,7.785928319208323956e-04,2.025620546191930771e-03,-2.522668219171464443e-04,-1.029451377689838409e-03,2.967039181385189295e-04,2.403591293841600418e-03,-2.066259970888495445e-03,-2.670128596946597099e-03,-2.462511649355292320e-03,2.148817526176571846e-03,2.582955639809370041e-03,2.281962428241968155e-03,1.024047029204666615e-03,-1.974769402295351028e-03,-2.179044531658291817e-03,2.027309034019708633e-03,2.332432195544242859e-03,-9.459583670832216740e-04,1.260040677152574062e-03,-2.958119381219148636e-03,-1.814348506741225719e-03,-7.814430864527821541e-04,3.423804882913827896e-04,2.339590719202533364e-04,-2.155115595087409019e-03,1.688544289208948612e-03,2.135224174708127975e-03,2.420895034447312355e-03,-5.665507051162421703e-04,5.294526345096528530e-04,2.329112961888313293e-03,-1.530147972516715527e-03,2.985328319482505322e-04,2.309096511453390121e-03,-1.023922464810311794e-03,-1.224915380589663982e-03,-3.114107996225357056e-03,7.319592987187206745e-04,1.574634341523051262e-03,2.802600385621190071e-03,1.431208103895187378e-03,-5.264127394184470177e-04,-7.857314776629209518e-04,1.540742116048932076e-03,-2.586478600278496742e-03,-1.883024931885302067e-03,1.064965152181684971e-03,2.498007612302899361e-03,-9.178332402370870113e-04,2.070252783596515656e-03,2.336206613108515739e-03,-2.340518112760037184e-04,1.478458056226372719e-03,2.654109266586601734e-04,-1.007385086268186569e-03,-1.585925463587045670e-03,3.046948229894042015e-03,7.297784904949367046e-04,2.418272895738482475e-03,2.760036615654826164e-03,1.779805053956806660e-03,-5.666386568918824196e-04,1.114071579650044441e-03,2.013867953792214394e-03,1.942523522302508354e-03,6.402835715562105179e-04,7.877067546360194683e-04,1.588064129464328289e-03,5.744738155044615269e-04,7.493799785152077675e-04,3.004444064572453499e-03,1.337344292551279068e-03,2.106793690472841263e-03,-2.036083256825804710e-03,-2.484844881109893322e-04,5.428133299574255943e-04,2.553833881393074989e-03,2.312888158485293388e-03,8.064227877184748650e-04,-2.981039462611079216e-03,-2.890583593398332596e-03,-1.043819007463753223e-03,-2.392220048932358623e-04,-1.981687732040882111e-03,-1.120863831602036953e-03,2.952598035335540771e-03,-3.019395750015974045e-03,-1.735794241540133953e-03
-1.313724322244524956e-03,2.832748228684067726e-03,-1.955206738784909248e-03,1.340149086900055408e-03,2.619789214804768562e-03,-2.649875124916434288e-03,-3.882161399815231562e-04,4.520386573858559132e-04,-8.852463797666132450e-04,1.820677891373634338e-03,-1.599703216925263405e-03,1.822301535867154598e-03,-6.681504146399674937e-06,2.040800405666232109e-03,-2.764661330729722977e-03,-1.007033279165625572e-03,3.866342012770473957e-04,-2.079764846712350845e-03,-1.248006126843392849e-03,-8.698746678419411182e-04,2.787888050079345703e-03,-1.386511838063597679e-03,-2.680042991414666176e-03,-1.403834437951445580e-03,-1.996670762309804559e-04,2.234154380857944489e-03,-1.153527337010018528e-04,2.620212733745574951e-03,2.667639171704649925e-03,-3.243279643356800079e-04,-6.638563354499638081e-04,1.311364583671092987e-03,2.815237501636147499e-03,6.482959142886102200e-04,1.497969031333923340e-03,3.138453699648380280e-03,-7.017678581178188324e-04,-2.117134397849440575e-03,-1.449350849725306034e-03,1.583458273671567440e-03,-3.082180395722389221e-03,-2.548563061282038689e-03,-1.598107162863016129e-03,-1.374444924294948578e-03,-1.102541224099695683e-03,-3.589128609746694565e-04,1.597642549313604832e-03,-3.085894742980599403e-03,1.966577954590320587e-03,-2.740527736023068428e-03,-1.054934109561145306e-03,-8.271504193544387817e-04,8.466526051051914692e-04,-2.839740132912993431e-03,-1.347938203252851963e-03,-1.694258069619536400e-03,-2.650842536240816116e-03,-1.229512970894575119e-03,2.879912964999675751e-03,1.912280422402545810e-04,2.253226237371563911e-03,-1.773352269083261490e-03,5.315357702784240246e-04,-1.540755620226264000e-03,3.495863347779959440e-04,2.683091210201382637e-03,1.282027224078774452e-04,-1.794739859178662300e-03,1.439405954442918301e-03,2.255302853882312775e-03,2.893358469009399414e-03,2.636541379615664482e-03,3.309122112113982439e-04,-1.219342229887843132e-03,2.698751399293541908e-03,-3.103342838585376740e-03,-2.416296163573861122e-03,3.140861401334404945e-03,-2.006638562306761742e-03,-1.223285216838121414e-03,9.714955813251435757e-04,7.698721019551157951e-04,2.135929185897111893e-03,4.628495080396533012e-04,1.329216873273253441e-03,1.249591703526675701e-03,2.124086488038301468e-03,-3.069475991651415825e-03,4.379796155262738466e-05,1.856084447354078293e-03,2.581180597189813852e-04,1.448638387955725193e-03,1.963091082870960236e-03,-1.791915972717106342e-03,1.321554766036570072e-03,2.890118863433599472e-03,2.690178574994206429e-03,6.630424759350717068e-04,9.073402616195380688e-04,-1.949753961525857449e-03,-5.274786381050944328e-04,-5.871425382792949677e-04,1.138447551056742668e-03,-3.166363458149135113e-04,-1.242626109160482883e-03,1.293587265536189079e-03,-7.907430408522486687e-04,2.018114086240530014e-03,1.534512557554990053e-04,2.581548877060413361e-03,-6.710544694215059280e-04,8.756103925406932831e-04,1.169217168353497982e-03,-2.609508112072944641e-03,-2.652288821991533041e-04,-9.717529173940420151e-04,-2.458741189911961555e-03,-1.004185178317129612e-03,2.325866516912356019e-04,2.832176862284541130e-03,-3.321316762594506145e-05,-1.391160069033503532e-03,-2.970813307911157608e-03,-1.779830665327608585e-03,-3.077936591580510139e-03,8.938960963860154152e-04,2.132297231582924724e-04,1.969062956050038338e-03
-3.103816183283925056e-03,-1.176427249447442591e-04,1.563428551889955997e-03,2.837508218362927437e-03,4.091550363227725029e-04,-1.360403257422149181e-03,1.655593747273087502e-03,-2.027323702350258827e-03,3.081274684518575668e-03,7.159782107919454575e-04,-1.864159828983247280e-03,-5.911950720474123955e-04,-3.145838854834437370e-03,9.513880650047212839e-05,-1.329869613982737064e-03,1.992795849218964577e-03,-7.836901932023465633e-04,7.734601403797114472e-09,2.200693357735872269e-03,4.253900551702827215e-04,9.527652873657643795e-04,2.912513213232159615e-03,2.363738603889942169e-03,-3.049398772418498993e-03,-8.097316022031009197e-04,-9.893469978123903275e-04,1.286423648707568645e-03,-1.275353482924401760e-03,-3.146277507767081261e-03,-2.098032971844077110e-03,-1.306975376792252064e-03,-3.006007755175232887e-03,-2.449465915560722351e-03,1.856264658272266388e-03,2.889646217226982117e-03,-1.659347093664109707e-03,-1.694255508482456207e-03,4.553389735519886017e-04,2.938954625278711319e-03,-1.008327584713697433e-03,2.076569246128201485e-03,1.393024558637989685e-05,2.497429028153419495e-03,1.168141607195138931e-03,-7.717347471043467522e-04,-3.977886226493865252e-04,-2.184772631153464317e-03,1.167399226687848568e-03,2.517685294151306152e-03,-1.744893030263483524e-03,2.378682838752865791e-03,2.763852942734956741e-03,-9.992166887968778610e-04,2.178000053390860558e-03,2.042408334091305733e-03,-2.233571605756878853e-03,-3.024799749255180359e-03,-2.161112846806645393e-03,-1.362685114145278931e-03,-1.721855485811829567e-03,-1.331171370111405849e-03,-8.207104401662945747e-04,-2.341625280678272247e-03,2.710262779146432877e-03,2.105333376675844193e-03,2.223627816420048475e-04,2.068903297185897827e-03,-1.239119214005768299e-03,-1.652589999139308929e-03,3.253469185438007116e-04,3.024975303560495377e-03,-2.911748131737112999e-03,1.100837253034114838e-03,-2.839715743903070688e-04,3.929455706384032965e-04,1.649015932343900204e-03,-1.955023035407066345e-03,2.596813254058361053e-03,-1.692328136414289474e-03,1.085330266505479813e-03,-2.011966193094849586e-03,2.931991824880242348e-03,-1.799706718884408474e-03,-1.764279324561357498e-03,-4.637319070752710104e-04,-1.856864197179675102e-03,-1.128773437812924385e-03,1.303480588831007481e-03,-1.887270947918295860e-03,1.352327642962336540e-03,2.665881300345063210e-03,-5.648750229738652706e-04,1.969671342521905899e-03,-8.802911033853888512e-04,-9.057589340955018997e-04,5.745628368458710611e-05,-1.246581785380840302e-03,1.206167391501367092e-03,-1.018764334730803967e-03,-2.746741520240902901e-03,5.271988920867443085e-04,-1.465283683501183987e-03,-6.140570621937513351e-04,-4.705436876974999905e-04,5.105544114485383034e-04,-2.140741562470793724e-03,-5.396098713390529156e-04,-2.179115545004606247e-03,9.413587977178394794e-04,1.511912327259778976e-03,1.656187116168439388e-03,2.316168043762445450e-03,-5.998301785439252853e-04,7.504835957661271095e-04,1.443328685127198696e-03,8.720670593902468681e-04,-2.737310947850346565e-03,-1.164934597909450531e-03,-7.186010479927062988e-04,-1.240179641172289848e-03,2.933238632977008820e-03,-3.885249898303300142e-04,-1.690768986009061337e-03,-1.715874765068292618e-03,-2.943153260275721550e-03,-2.094941679388284683e-03,-2.571874356362968683e-04,-7.680631242692470551e-04
7.813181146048009396e-04,-9.626286919228732586e-04,-1.059185597114264965e-03,-1.988760661333799362e-03,2.926865592598915100e-03,-2.788966055959463120e-03,1.853773603215813637e-03,1.466554822400212288e-03,2.498873975127935410e-03,3.726633149199187756e-04,6.108240922912955284e-04,7.346746133407577872e-05,1.394786406308412552e-03,-2.319362480193376541e-03,1.956554828211665154e-03,-2.932969247922301292e-03,1.077210763469338417e-03,2.847833791747689247e-03,1.278588548302650452e-03,-7.851818227209150791e-04,1.420206972397863865e-03,2.130936132743954659e-03,4.223895084578543901e-04,3.037722082808613777e-03,1.840679091401398182e-03,2.539718756452202797e-03,1.360473455861210823e-03,1.582597033120691776e-03,-9.160103945760056376e-05,1.241618650965392590e-03,-5.503441789187490940e-04,-4.643505235435441136e-05,-1.019577961415052414e-03,1.886985031887888908e-03,7.478216139134019613e-05,1.158025348559021950e-03,1.291821594350039959e-03,9.762147674337029457e-04,-2.388461958616971970e-03,5.048661259934306145e-04,-5.243379273451864719e-04,2.587513765320181847e-03,2.649782691150903702e-04,-2.963012317195534706e-03,1.185607048682868481e-03,-1.882003503851592541e-03,-2.925120759755373001e-03,2.977018477395176888e-03,-1.593203167431056499e-03,-1.502347528003156185e-03,-1.736774807795882225e-03,2.897063270211219788e-03,1.859861193224787712e-03,-4.168130180914886296e-05,-1.524909748695790768e-04,-2.182240132242441177e-03,1.501566381193697453e-03,2.367332577705383301e-03,1.020159106701612473e-03,-1.023859367705881596e-03,9.035929688252508640e-04,-1.092900638468563557e-03,1.033288310281932354e-03,1.343125040875747800e-04,5.686931544914841652e-04,1.181063591502606869e-03,1.558256451971828938e-03,-7.349727675318717957e-04,2.194548258557915688e-03,2.858366817235946655e-03,-2.135447924956679344e-03,1.059221569448709488e-03,-2.645503263920545578e-03,-2.515237312763929367e-03,1.791905815480276942e-04,-2.557248109951615334e-03,-1.903203228721395135e-04,-6.076241843402385712e-04,3.130144439637660980e-03,-7.404897478409111500e-04,-1.524377032183110714e-03,-7.614351343363523483e-04,1.183553831651806831e-03,1.737761893309652805e-03,-2.477884059771895409e-03,1.540795055916532874e-04,2.725418598856776953e-04,2.057678764685988426e-03,-2.634298754855990410e-03,-5.924719152972102165e-04,-1.070191647158935666e-04,2.047044923529028893e-03,-2.577381441369652748e-03,1.806127489544451237e-03,1.947709009982645512e-03,-2.822896698489785194e-03,9.610928245820105076e-04,-9.896564733935520053e-05,-1.298287970712408423e-04,1.785616273991763592e-03,-1.368818629998713732e-04,1.049384125508368015e-03,-1.949287834577262402e-03,2.703356149140745401e-04,-3.103006631135940552e-03,-1.895583933219313622e-03,5.888261948712170124e-04,-1.573974848724901676e-03,1.053895684890449047e-03,2.492228755727410316e-03,-5.014013149775564671e-04,2.259460045024752617e-03,-2.993218949995934963e-04,1.672483165748417377e-03,-1.006059814244508743e-03,1.883363001979887486e-03,3.476129495538771152e-04,2.137867035344243050e-03,1.751665491610765457e-03,-2.203547162935137749e-03,-1.625905511900782585e-03,6.058957078494131565e-04,4.799372400157153606e-04,2.853858750313520432e-04,-1.425321213901042938e-03,1.992482459172606468e-03,2.895229263231158257e-03,-2.003375906497240067e-03
-2.985658124089241028e-03,2.209156751632690430e-03,2.071915427222847939e-03,-8.531539060641080141e-05,3.815295640379190445e-04,-4.583233385346829891e-04,-1.161489984951913357e-03,1.540751545690000057e-03,-3.598863258957862854e-04,-1.113114994950592518e-03,1.633905339986085892e-03,4.540604422800242901e-04,2.247923257527872920e-04,-5.469485186040401459e-04,-1.070684404112398624e-03,7.922017830424010754e-04,-2.278910484164953232e-03,-6.110219401307404041e-04,-3.726950671989470720e-04,1.219948870129883289e-03,-1.422970904968678951e-03,-8.662969048600643873e-05,2.735792659223079681e-04,-7.080221548676490784e-04,9.612798457965254784e-04,-1.973252743482589722e-03,2.060780301690101624e-03,2.421399811282753944e-03,-1.737139187753200531e-03,4.329304647399112582e-05,-1.955182058736681938e-03,-2.034539356827735901e-04,3.412893565837293863e-04,8.313435246236622334e-04,1.436501275748014450e-03,-3.904101904481649399e-04,1.239143777638673782e-03,-3.055676817893981934e-03,-3.018715186044573784e-03,-1.837402000091969967e-03,3.490319650154560804e-04,-1.493297517299652100e-03,-2.671850146725773811e-03,2.493519801646471024e-03,-1.008340506814420223e-03,2.332368399947881699e-03,-3.194455639459192753e-04,-2.549667260609567165e-04,8.311326382681727409e-04,3.722013789229094982e-04,2.533001534175127745e-04,-3.062529955059289932e-03,-2.920845989137887955e-03,-7.437368622049689293e-04,-2.063292311504483223e-03,1.616944442503154278e-03,9.563073981553316116e-04,-1.365924021229147911e-03,7.682339637540280819e-04,2.442349912598729134e-03,-3.762380219995975494e-04,1.473009586334228516e-03,-2.602805325295776129e-04,5.804487154819071293e-04,-1.385774696245789528e-03,9.994038846343755722e-04,1.559453550726175308e-03,1.355194952338933945e-03,-2.654722484294325113e-04,1.342031988315284252e-03,-2.448308281600475311e-03,-1.646449556574225426e-03,-2.206066565122455359e-04,3.143623471260070801e-03,-1.907687867060303688e-03,1.531092450022697449e-03,-1.375419320538640022e-03,2.064862288534641266e-03,-1.082603354007005692e-03,2.471609041094779968e-03,2.282439731061458588e-03,2.574219135567545891e-03,-1.078996574506163597e-03,7.022778154350817204e-04,-7.230876362882554531e-04,-2.663365332409739494e-03,1.363573595881462097e-03,-8.304357179440557957e-04,-7.064194651320576668e-04,2.969322260469198227e-03,3.022399963811039925e-03,-1.599370851181447506e-03,2.083094092085957527e-03,1.634746673516929150e-03,-9.414306259714066982e-04,4.811134131159633398e-04,-1.574737601913511753e-03,-2.568166819401085377e-04,2.334254095330834389e-03,-1.854702364653348923e-03,1.374781713820993900e-03,1.908978330902755260e-03,1.187910907901823521e-03,1.476582605391740799e-03,3.146681468933820724e-03,2.088527195155620575e-03,-2.899781335145235062e-03,2.605603076517581940e-03,-8.997719269245862961e-04,2.587547991424798965e-03,1.085799536667764187e-03,-1.928641810081899166e-03,-2.180268988013267517e-03,-1.806432381272315979e-03,2.032959833741188049e-03,2.888224087655544281e-03,-2.610510913655161858e-03,-1.675916835665702820e-03,1.719823689199984074e-03,1.702610636129975319e-03,-2.032450865954160690e-03,1.166684087365865707e-03,-2.099850680679082870e-03,-1.196992350742220879e-03,-1.592545449966564775e-04,2.217634348198771477e-03,-2.245002659037709236e-03,2.781320130452513695e-03
-2.240627305582165718e-03,-1.409878837876021862e-03,2.535826060920953751e-03,8.517292735632508993e-05,-6.575690931640565395e-04,2.041482366621494293e-03,2.785142743960022926e-03,-3.653151798062026501e-04,5.223385232966393232e-05,-5.400647060014307499e-04,-1.618557842448353767e-03,-1.153830438852310181e-03,1.992853824049234390e-03,-2.907621674239635468e-03,1.293920096941292286e-03,-1.020047464407980442e-03,-1.358911977149546146e-04,-1.182464911835268140e-04,2.694887807592749596e-03,-1.993249868974089622e-03,1.259124255739152431e-03,-1.361838891170918941e-03,8.134772069752216339e-04,3.144587855786085129e-03,-2.162851451430469751e-04,-1.014676876366138458e-03,-2.553332597017288208e-03,-5.443148256745189428e-05,1.587480423040688038e-03,-1.440816675312817097e-03,4.993539769202470779e-04,-1.880775322206318378e-03,1.662136521190404892e-03,1.787376822903752327e-03,-1.277757459320127964e-03,1.252587768249213696e-03,-7.788310176692903042e-04,-1.292647561058402061e-03,-2.697936957702040672e-03,-2.013074699789285660e-03,1.950997160747647285e-03,3.864922036882489920e-04,2.456341870129108429e-03,-2.504950622096657753e-03,-2.717385301366448402e-03,1.145733986049890518e-03,4.296683473512530327e-04,4.848205426242202520e-04,6.086703797336667776e-05,-2.299906918779015541e-04,-1.139010419137775898e-03,5.473544006235897541e-04,-4.224668955430388451e-04,2.026732254307717085e-04,-5.532121285796165466e-04,-3.065004013478755951e-03,7.230442133732140064e-05,-2.192492596805095673e-03,-2.203133190050721169e-03,1.877927570603787899e-04,-2.589594107121229172e-03,-3.001451259478926659e-03,-3.952973638661205769e-04,1.686341711319983006e-03,3.005874808877706528e-03,-2.660413272678852081e-03,1.154904020950198174e-03,-3.147762967273592949e-03,1.035211491398513317e-03,-1.109816483221948147e-03,1.823287806473672390e-03,-3.123694797977805138e-03,-1.204835483804345131e-03,-1.750417170114815235e-03,2.487014746293425560e-03,1.186093431897461414e-03,-2.914767479524016380e-03,-3.149040509015321732e-03,-9.453897946514189243e-04,2.420907374471426010e-03,-2.634289441630244255e-03,-1.814551069401204586e-04,-1.298787887208163738e-03,-6.455471157096326351e-04,-2.274409402161836624e-03,-2.584935165941715240e-03,1.085688243620097637e-03,3.008979605510830879e-03,2.137114293873310089e-03,3.156106453388929367e-03,-2.210098784416913986e-03,-1.643206225708127022e-03,8.767817053012549877e-04,-2.727172803133726120e-03,-7.721867295913398266e-04,1.880628289654850960e-03,2.124911174178123474e-03,-6.479552830569446087e-04,1.197869074530899525e-03,-2.596741542220115662e-03,2.986049803439527750e-04,8.675313438288867474e-04,1.462416374124586582e-03,-1.808113767765462399e-03,-1.491684932261705399e-03,1.646940945647656918e-03,-9.274557232856750488e-04,2.521053887903690338e-03,1.075050560757517815e-03,-2.069976879283785820e-03,3.345689037814736366e-04,5.157585255801677704e-04,-1.391382538713514805e-03,2.860686974599957466e-03,2.752819331362843513e-03,-1.868905848823487759e-03,-3.768754540942609310e-04,6.388312322087585926e-04,5.698173190467059612e-04,1.799879246391355991e-03,1.772144576534628868e-03,-2.220029477030038834e-03,-1.771784445736557245e-04,-2.861329121515154839e-04,1.725135138258337975e-03,1.259031821973621845e-03,-4.058889171574264765e-04,5.676849978044629097e-04
4.875869199167937040e-04,2.481480187270790339e-04,-6.091984105296432972e-04,2.398362848907709122e-03,-1.816486939787864685e-03,1.453835284337401390e-03,1.484552514739334583e-03,-4.646002198569476604e-04,-1.419705949956551194e-04,-5.518776015378534794e-04,6.280000088736414909e-04,1.068355748429894447e-03,-1.682428177446126938e-03,-2.382360165938735008e-03,8.323267684318125248e-04,2.921858569607138634e-03,-4.261212015990167856e-04,2.374148927628993988e-03,-1.936232438310980797e-03,-2.871474251151084900e-03,1.515062991529703140e-03,-9.050673688761889935e-04,2.745641395449638367e-03,2.477183006703853607e-03,2.797631546854972839e-03,1.379578956402838230e-03,-2.590385964140295982e-03,-2.861008979380130768e-03,-9.706797427497804165e-04,-2.703828271478414536e-03,-1.008551189443096519e-04,2.397628035396337509e-03,2.032068558037281036e-03,2.891734708100557327e-03,2.888918621465563774e-03,3.151645418256521225e-03,-7.596891373395919800e-04,-2.691797679290175438e-03,1.922794850543141365e-03,1.946649979799985886e-03,-2.286016475409269333e-03,1.606174919288605452e-04,-5.409487639553844929e-04,-2.998629119247198105e-03,-2.963079896289855242e-04,8.712138514965772629e-04,-8.385993423871695995e-04,-2.432369161397218704e-03,-2.066781511530280113e-03,3.133396618068218231e-03,1.733380719088017941e-03,-9.046209161169826984e-04,2.693223068490624428e-03,-1.187756541185081005e-03,-2.914892975240945816e-03,-1.309853512793779373e-03,3.292911787866614759e-05,-1.805210602469742298e-03,2.334863180294632912e-03,-2.036927500739693642e-03,1.162150292657315731e-03,-1.731098629534244537e-03,-1.901829382404685020e-03,1.350884442217648029e-03,-1.089819852495566010e-04,-2.488368190824985504e-04,3.150537144392728806e-03,-1.082693808712065220e-03,-6.757616647519171238e-04,-2.132228342816233635e-03,1.751028699800372124e-03,9.139739267993718386e-05,-2.388570690527558327e-03,-6.123983184807002544e-04,2.782549243420362473e-03,2.114546368829905987e-04,2.905563451349735260e-04,4.052781732752919197e-04,3.150215838104486465e-03,2.852993318811058998e-03,-2.963433042168617249e-03,-7.459385087713599205e-04,-1.202943734824657440e-03,2.562436275184154510e-03,-2.341825165785849094e-04,-2.077518962323665619e-03,-2.157041672035120428e-05,8.051483309827744961e-04,2.610507421195507050e-03,1.968479249626398087e-03,1.112531172111630440e-03,-2.388400258496403694e-03,1.569694955833256245e-03,1.693883212283253670e-03,-1.137621351517736912e-03,1.568882493302226067e-03,2.578818006440997124e-03,1.223917934112250805e-03,1.655978150665760040e-03,-1.159908715635538101e-03,2.633834490552544594e-03,2.152105327695608139e-03,-2.541453577578067780e-03,-2.819117624312639236e-03,2.307560062035918236e-03,-3.071867395192384720e-03,2.360463840886950493e-04,1.969732111319899559e-03,-2.866037888452410698e-03,8.636447018943727016e-04,-3.147803479805588722e-03,2.696393989026546478e-03,7.618909003213047981e-04,1.877221395261585712e-03,-5.361794028431177139e-04,-1.289552346861455590e-05,9.159689070656895638e-04,-2.367565408349037170e-03,-3.113616025075316429e-03,-6.016576662659645081e-04,2.853779122233390808e-03,-2.366840373724699020e-03,-1.882237847894430161e-03,-1.893942127935588360e-03,-4.725483304355293512e-04,-1.323468983173370361e-03,1.804648898541927338e-03,1.821311656385660172e-03
2.405363775324076414e-04,5.757715553045272827e-04,-1.180072664283216000e-03,1.033869222737848759e-03,-3.396841930225491524e-04,2.862597117200493813e-03,7.457802421413362026e-04,-1.938221161253750324e-03,-7.168052834458649158e-04,-1.360234804451465607e-03,2.635567449033260345e-03,3.011086722835898399e-03,-1.257632975466549397e-03,2.495016204193234444e-03,1.696417224593460560e-03,-4.614693752955645323e-04,-2.925814129412174225e-03,9.193013538606464863e-04,-2.309874398633837700e-03,1.362918992526829243e-03,-2.682778052985668182e-03,2.651208778843283653e-03,-2.281350025441497564e-04,-1.693872036412358284e-03,4.881808126810938120e-04,-2.354230033233761787e-03,-1.751052681356668472e-03,-6.086272187530994415e-04,-2.010409021750092506e-03,2.638929523527622223e-03,-2.505457028746604919e-03,-1.145610818639397621e-03,-1.032038242556154728e-03,-2.300394931808114052e-03,2.435006666928529739e-03,2.871243341360241175e-04,2.878004685044288635e-03,9.942674078047275543e-04,2.644153079017996788e-03,-3.776651865337044001e-04,-2.364314161241054535e-03,-3.131014062091708183e-03,1.530042965896427631e-03,2.422144636511802673e-03,4.372737603262066841e-04,-1.466656103730201721e-03,-4.971319576725363731e-04,1.125610084272921085e-03,-1.111088553443551064e-03,-2.242463873699307442e-03,2.687014173716306686e-03,3.123326925560832024e-03,4.591840843204408884e-05,-3.009811742231249809e-03,-4.004264774266630411e-04,4.614008357748389244e-04,1.727562863379716873e-03,-2.417719224467873573e-03,1.787132932804524899e-03,-1.279289717786014080e-03,-9.300557430833578110e-04,-2.238685032352805138e-03,-1.722928369417786598e-03,-6.940463208593428135e-05,-2.515341388061642647e-03,-2.386598614975810051e-03,1.983250724151730537e-03,2.172602806240320206e-03,1.405050279572606087e-03,-2.116972114890813828e-03,-1.141201239079236984e-03,-2.722970675677061081e-03,-2.294287085533142090e-03,1.686892472207546234e-03,-2.192637650296092033e-03,8.418126963078975677e-04,3.400282294023782015e-04,-2.281961264088749886e-03,-2.060071099549531937e-03,-8.426124259131029248e-05,8.064651628956198692e-04,5.021512042731046677e-04,1.920031732879579067e-03,9.133985731750726700e-04,-3.069583326578140259e-03,-2.486208220943808556e-03,-2.468937775120139122e-03,-1.986913383007049561e-03,3.161348286084830761e-04,1.286722603254020214e-03,-7.982127135619521141e-04,-3.133118385449051857e-03,-2.215526765212416649e-03,-7.324922480620443821e-04,1.429969677701592445e-03,-2.479041693732142448e-03,1.028759870678186417e-03,-2.172974403947591782e-03,2.400840865448117256e-03,1.341855851933360100e-03,-1.165531110018491745e-03,-2.838818123564124107e-03,6.602859357371926308e-04,-2.088436012854799628e-04,-6.701822276227176189e-04,3.035039117094129324e-04,1.544028753414750099e-03,2.246044023195281625e-04,2.107140840962529182e-03,-7.555403135484084487e-05,-1.967149320989847183e-03,5.732928402721881866e-04,2.369692781940102577e-03,2.789248013868927956e-03,1.383755123242735863e-03,-1.445411362510640174e-05,-1.307291793636977673e-03,2.843915717676281929e-03,1.970531651750206947e-03,1.280326279811561108e-03,2.819911809638142586e-03,2.626057714223861694e-03,-9.399074479006230831e-04,-3.137889550998806953e-03,1.985417766263708472e-04,-2.169275423511862755e-03,1.820469915401190519e-04,2.892219345085322857e-04
2.656225580722093582e-03,-1.097315340302884579e-03,4.069711430929601192e-04,-1.322867901762947440e-04,-1.855588634498417377e-03,-4.669942427426576614e-04,2.035947516560554504e-03,-5.410811281763017178e-04,-3.044443670660257339e-03,-1.768343732692301273e-03,-2.168782055377960205e-03,-3.114942694082856178e-03,-2.847610739991068840e-03,-2.521101385354995728e-03,-7.049413397908210754e-05,1.373720588162541389e-03,1.580317737534642220e-03,-3.097818931564688683e-03,1.600188988959416747e-04,-2.474867273122072220e-03,-2.791069215163588524e-03,-2.659221412613987923e-03,1.342388219200074673e-03,-5.604490288533270359e-04,-2.291463548317551613e-03,1.667136442847549915e-03,2.691541798412799835e-03,6.777428789064288139e-04,-6.267856806516647339e-04,3.364100994076579809e-04,7.394946296699345112e-04,-1.261687430087476969e-04,-2.388465218245983124e-03,-2.193311927840113640e-03,2.272639889270067215e-03,2.498033922165632248e-03,2.189453458413481712e-03,1.207342371344566345e-03,1.176554942503571510e-03,2.467606449499726295e-03,-1.017800997942686081e-03,2.471115207299590111e-03,-3.003861289471387863e-03,7.202087435871362686e-04,1.668434822931885719e-03,1.769708818756043911e-03,4.013718571513891220e-04,-4.585169372148811817e-04,-3.893374523613601923e-04,3.009248757734894753e-03,1.525957835838198662e-03,2.483858959749341011e-03,-1.860421849414706230e-03,9.795528603717684746e-04,-2.816721796989440918e-03,3.080738242715597153e-04,1.614215318113565445e-03,-2.875369973480701447e-03,-2.424372127279639244e-03,1.197937410324811935e-03,1.746619469486176968e-03,-8.810931467451155186e-05,-6.408993504010140896e-04,-1.700681750662624836e-03,-1.654643449001014233e-03,2.637317636981606483e-03,-1.960565568879246712e-03,-1.479963655583560467e-03,2.821233647409826517e-04,8.400250808335840702e-04,3.071674145758152008e-03,1.250322384294122458e-04,1.785301486961543560e-03,2.514326479285955429e-03,5.213010590523481369e-04,-9.131589904427528381e-04,2.493635052815079689e-03,7.725455361651256680e-05,-1.152859535068273544e-03,1.907458179630339146e-03,-1.781841274350881577e-03,1.460344297811388969e-03,1.969766570255160332e-03,-8.324632071889936924e-04,-2.839783555828034878e-04,2.041013212874531746e-03,-2.506739925593137741e-03,6.278188666328787804e-04,1.484213978983461857e-03,5.133300437591969967e-04,-1.408940181136131287e-03,-1.184570835903286934e-03,3.366423188708722591e-04,3.404848393984138966e-04,9.903205791488289833e-04,-3.765842120628803968e-04,3.817747929133474827e-04,1.946608885191380978e-03,-5.868562730029225349e-04,4.584458947647362947e-04,-1.135365106165409088e-03,-7.167864823713898659e-04,2.448390470817685127e-03,-1.840110984630882740e-03,2.689491491764783859e-03,-1.449621922802180052e-04,-1.727360184304416180e-03,2.821743255481123924e-03,1.049991114996373653e-03,2.908761845901608467e-03,1.477253157645463943e-03,1.374263898469507694e-03,2.534184372052550316e-03,2.121262485161423683e-03,-8.144648745656013489e-04,-1.130678108893334866e-03,-2.655489835888147354e-03,-9.941450553014874458e-04,8.494632202200591564e-04,-2.390138804912567139e-03,2.688350832613650709e-06,1.309416489675641060e-03,1.603683806024491787e-03,1.708802767097949982e-03,-1.993983518332242966e-03,1.295816735364496708e-03,-2.597723854705691338e-03,1.263708807528018951e-03
-8.152917725965380669e-04,2.298248466104269028e-03,9.823458967730402946e-04,1.699028798611834645e-04,1.270404201932251453e-03,6.979092140682041645e-04,-2.310600131750106812e-03,2.130797598510980606e-03,3.076942870393395424e-03,2.857748186215758324e-03,8.965356973931193352e-04,-4.095180192962288857e-04,2.028877614066004753e-03,8.821846568025648594e-04,2.601065440103411674e-03,2.835633698850870132e-03,-7.655337685719132423e-04,-1.533457660116255283e-03,-3.908152575604617596e-04,1.467216643504798412e-03,-8.224126213463023305e-05,7.021186756901443005e-04,7.438949978677555919e-05,2.984381746500730515e-03,-2.600100822746753693e-03,-7.431065314449369907e-04,2.562009496614336967e-03,-9.199816850014030933e-04,-8.705363725312054157e-04,-2.242450602352619171e-03,1.954573526745662093e-04,1.714374055154621601e-03,3.360917326062917709e-04,2.125822473317384720e-03,3.114192746579647064e-03,-3.089710604399442673e-03,2.039640909060835838e-03,9.216757607646286488e-04,-9.412192739546298981e-04,-2.514556283131241798e-03,8.315326995216310024e-04,-8.128548506647348404e-04,-1.137179904617369175e-03,1.567682716995477676e-03,2.064518863335251808e-03,-6.891450084367534146e-06,-2.258432330563664436e-03,-1.862635603174567223e-03,-4.482303338591009378e-04,-1.198073368868790567e-05,-1.070075595634989440e-04,4.290573415346443653e-04,5.800297949463129044e-04,2.582520479336380959e-03,1.710844342596828938e-03,-1.206918153911828995e-03,-2.192356856539845467e-03,3.565663646440953016e-04,2.224561991170048714e-03,1.943301322171464562e-04,-6.683482788503170013e-04,-2.069510373985394835e-04,4.408945678733289242e-04,2.586112823337316513e-03,-1.877476461231708527e-03,-1.585543155670166016e-03,-2.579590305685997009e-03,-8.158480050042271614e-04,-1.515741110779345036e-03,2.063492545858025551e-03,-1.600058283656835556e-03,-1.254957518540322781e-03,-1.463889959268271923e-03,2.384251449257135391e-03,-1.061922404915094376e-03,2.744627883657813072e-03,1.441524218535050750e-04,-2.333229174837470055e-03,2.161421114578843117e-03,-2.464570337906479836e-03,-2.640221791807562113e-04,-1.104094088077545166e-03,1.758135389536619186e-03,-2.485407982021570206e-03,3.116680309176445007e-03,9.745766146807000041e-05,-2.191639272496104240e-03,-1.729137962684035301e-03,1.262877951376140118e-03,1.045935787260532379e-03,1.465210574679076672e-03,9.860810823738574982e-04,-1.804612693376839161e-03,-4.194107605144381523e-04,1.990113407373428345e-03,2.772193169221282005e-03,-3.319454845041036606e-04,1.830859226174652576e-03,-2.449854277074337006e-03,-7.485942915081977844e-04,-1.216748263686895370e-03,-2.436673967167735100e-03,-1.257708878256380558e-03,6.381433922797441483e-04,2.416696399450302124e-03,1.141952583566308022e-03,-2.539167762733995914e-04,-1.911397441290318966e-03,2.873095683753490448e-03,1.019523828290402889e-03,2.938349731266498566e-03,8.417665958404541016e-05,-2.578700426965951920e-03,-2.498221816495060921e-03,8.309073746204376221e-04,1.562601071782410145e-03,1.699048443697392941e-03,-2.843661699444055557e-03,-3.025718731805682182e-03,2.277974970638751984e-03,-2.024802844971418381e-03,-2.676096046343445778e-03,-8.679412421770393848e-04,-1.934183994308114052e-03,1.611829036846756935e-03,3.128072945401072502e-03,8.851417805999517441e-04,2.210848906543105841e-04
3.144268877804279327e-03,-7.678211550228297710e-04,-1.112300902605056763e-03,-2.308416878804564476e-03,-2.347000263398513198e-04,-4.667956090997904539e-04,-2.199437702074646950e-03,2.418361604213714600e-03,-2.991540590301156044e-03,2.950596972368657589e-04,-2.207360928878188133e-03,2.128963242284953594e-04,-2.984264865517616272e-03,2.966969273984432220e-03,9.763891575857996941e-04,5.524490261450409889e-04,-2.572980709373950958e-03,2.099945209920406342e-03,-2.290069591253995895e-03,-5.841607926413416862e-04,-2.034637582255527377e-04,7.467017276212573051e-04,2.156063419533893466e-04,1.132143777795135975e-03,-1.092761405743658543e-03,2.595030469819903374e-03,-2.687495201826095581e-03,1.151127391494810581e-03,-2.240811940282583237e-03,-1.299367984756827354e-03,1.192659954540431499e-03,2.349479356780648232e-03,2.957217860966920853e-03,2.256046980619430542e-03,2.303172368556261063e-03,1.914074528031051159e-03,1.770310685969889164e-03,1.841540070017799735e-04,-1.514150178991258144e-03,-2.815760672092437744e-03,2.670091576874256134e-03,-2.399284159764647484e-03,6.233567837625741959e-04,2.486774697899818420e-03,2.266104100272059441e-03,-1.036481815390288830e-03,-7.692493381910026073e-04,2.944384934380650520e-03,3.293768677394837141e-04,-2.052088733762502670e-03,1.392304839100688696e-04,2.824275288730859756e-04,2.491223160177469254e-03,6.090561510063707829e-04,1.390967081533744931e-04,1.262602396309375763e-03,-1.131814206019043922e-03,-1.487305620685219765e-03,-2.649361966177821159e-03,-1.365009346045553684e-03,-2.192107960581779480e-03,-2.480294788256287575e-03,-2.462631091475486755e-03,-4.213831853121519089e-04,8.737039170227944851e-04,7.031037821434438229e-04,1.041525392793118954e-03,1.002191565930843353e-03,8.229960803873836994e-04,2.340299775823950768e-03,2.631933195516467094e-03,-9.275294723920524120e-04,2.412450034171342850e-03,1.410086755640804768e-03,-1.058067195117473602e-03,-3.819579142145812511e-04,2.405063482001423836e-03,1.091361162252724171e-03,3.146860050037503242e-03,1.674979343079030514e-03,-9.261830709874629974e-04,-2.273543970659375191e-03,1.899040536954998970e-03,-2.271154662594199181e-03,-1.291617518290877342e-03,5.102732684463262558e-04,-3.114242805168032646e-03,2.905639121308922768e-03,2.003012923523783684e-03,-1.789024332538247108e-03,-4.517452616710215807e-04,-5.531436181627213955e-04,1.882555545307695866e-03,1.597575843334197998e-03,-3.109508892521262169e-03,8.742053760215640068e-04,9.857940021902322769e-04,2.074440009891986847e-03,2.898867242038249969e-03,-1.153779798187315464e-03,3.103472525253891945e-03,-1.101132133044302464e-03,-8.177035488188266754e-04,2.360507380217313766e-03,2.573999343439936638e-03,1.576574402861297131e-03,-6.758773815818130970e-04,2.577273640781641006e-03,-5.577472620643675327e-04,2.066953107714653015e-03,8.873062324710190296e-05,-1.500745071098208427e-03,1.387003110721707344e-03,3.028321312740445137e-03,-1.864553894847631454e-03,2.345736604183912277e-03,1.233123592101037502e-03,-9.457908890908583999e-05,-1.439710264094173908e-03,2.004645531997084618e-03,5.046655423939228058e-04,-2.029172610491514206e-03,2.681626705452799797e-03,-1.385682662657927722e-05,2.990393433719873428e-03,1.120110042393207550e-03,-2.866519615054130554e-03,-1.697232015430927277e-03
2.072426490485668182e-03,2.637284575030207634e-03,-2.582649001851677895e-03,-2.324090106412768364e-03,-2.486552577465772629e-03,-3.146013244986534119e-03,2.995794638991355896e-03,-1.212494680657982826e-03,-1.164745888672769070e-03,-2.342334482818841934e-03,1.011772663332521915e-03,7.184884161688387394e-04,4.619967949111014605e-04,7.841047481633722782e-04,-1.122742658481001854e-03,-1.415518694557249546e-03,2.997680334374308586e-03,1.428800518624484539e-03,1.537288073450326920e-03,1.651150290854275227e-03,-6.110204267315566540e-04,-2.376505872234702110e-03,-8.490444743074476719e-04,2.252010162919759750e-04,-3.053773427382111549e-03,1.044755103066563606e-03,-4.210419137962162495e-04,1.476294943131506443e-03,1.868925988674163818e-03,1.830088556744158268e-03,2.799663692712783813e-03,-2.899715909734368324e-03,-1.910922932438552380e-03,9.571427945047616959e-04,-1.063034287653863430e-03,2.020478248596191406e-03,-2.910535084083676338e-03,-1.925636199302971363e-03,-1.535212737508118153e-03,3.958918678108602762e-04,9.508955554338172078e-05,2.834175247699022293e-03,-1.483857282437384129e-03,2.584020607173442841e-03,2.043490530923008919e-03,7.891207933425903320e-04,1.534598530270159245e-03,6.748751620762050152e-04,2.902895677834749222e-03,-1.716405735351145267e-03,-2.740503521636128426e-03,-1.887887483462691307e-03,9.650649008108302951e-05,2.769077429547905922e-03,5.193662946112453938e-04,-1.900193281471729279e-03,1.199906226247549057e-03,-2.614706754684448242e-03,-1.039000460878014565e-03,3.555452858563512564e-04,5.919987452216446400e-04,2.522422932088375092e-03,-2.383128274232149124e-03,-2.330586081370711327e-03,-1.929816906340420246e-03,-2.192938467487692833e-03,-3.679843794088810682e-04,2.379728248342871666e-03,-7.474985904991626740e-04,1.544198021292686462e-03,-1.654476975090801716e-03,-2.103055594488978386e-03,1.543020480312407017e-03,-3.006614861078560352e-04,2.021069871261715889e-03,1.344860997051000595e-03,5.350464489310979843e-04,-2.959505654871463776e-03,-1.556507544592022896e-03,1.194090582430362701e-03,2.108465880155563354e-03,2.550201257690787315e-03,1.439185114577412605e-03,2.234610263258218765e-03,-1.466264249756932259e-03,-2.461917931213974953e-03,1.189970527775585651e-03,-2.758214483037590981e-03,3.263659600634127855e-04,2.252305857837200165e-03,-1.935544773004949093e-03,8.754492155276238918e-04,1.783987157978117466e-03,-3.071563318371772766e-03,2.662017708644270897e-03,-1.234950032085180283e-03,-2.212184015661478043e-03,3.647943085525184870e-04,7.433721330016851425e-04,-7.710402715019881725e-04,-1.254520611837506294e-03,2.761833136901259422e-03,1.079629291780292988e-03,-8.511907071806490421e-04,3.111423691734671593e-03,7.452535792253911495e-04,5.756708560511469841e-04,-1.014209003187716007e-03,3.030038671568036079e-03,8.315365994349122047e-04,-6.087985821068286896e-04,1.397748477756977081e-03,-1.232112525030970573e-03,2.654652111232280731e-03,-1.753454795107245445e-03,-1.236042007803916931e-03,-2.602604916319251060e-03,7.229136372188804671e-06,1.061880146153271198e-03,-2.103019040077924728e-03,2.875650068745017052e-03,1.765908556990325451e-03,2.258502412587404251e-03,3.099625697359442711e-03,-2.682366874068975449e-03,-1.571175525896251202e-03,1.078599481843411922e-03,5.585142644122242928e-04
1.517264754511415958e-03,-2.778221387416124344e-03,8.646428468637168407e-04,-2.752642147243022919e-03,-2.362383762374520302e-03,-2.172704087570309639e-03,1.113680424168705940e-03,-2.517933316994458437e-04,2.836340339854359627e-03,-2.660372527316212654e-03,-2.282837667735293508e-04,2.659352496266365051e-03,5.723959184251725674e-04,-6.661341758444905281e-04,-1.508752815425395966e-03,-1.598811941221356392e-03,1.010115258395671844e-03,-2.163458615541458130e-03,-1.643757219426333904e-03,2.741201315075159073e-03,-1.260058161278720945e-05,-1.026852056384086609e-03,2.759327646344900131e-03,3.110796445980668068e-03,1.363416551612317562e-03,-2.409225329756736755e-03,-2.065913751721382141e-03,-1.113398931920528412e-03,1.641772687435150146e-03,2.793795662000775337e-03,-3.905499761458486319e-04,1.009273109957575798e-03,9.618299663998186588e-04,-1.395819359458982944e-03,-2.296315273270010948e-03,-1.883401768282055855e-03,2.679498866200447083e-03,1.077368273399770260e-03,-1.920734182931482792e-03,5.319612100720405579e-04,1.274824491702020168e-03,1.650296733714640141e-03,-2.663755323737859726e-03,-1.288345782086253166e-03,-1.547021529404446483e-04,-3.057398600503802299e-03,-5.785861285403370857e-04,-2.989610191434621811e-03,-1.715583144687116146e-03,2.882551401853561401e-03,-2.553085098043084145e-03,1.436828635632991791e-03,1.566122635267674923e-03,8.621662855148315430e-04,2.566551323980093002e-03,1.237281365320086479e-03,-3.141904482617974281e-03,2.562396461144089699e-03,-5.342592485249042511e-04,6.149062537588179111e-04,-1.522195758298039436e-03,-1.289127743802964687e-03,2.006268128752708435e-03,2.502145944163203239e-03,1.180113526061177254e-03,2.204154850915074348e-03,1.799699268303811550e-03,9.798861574381589890e-04,1.349707017652690411e-03,-1.634221698623150587e-04,-2.974553033709526062e-03,-2.929385285824537277e-03,3.718566440511494875e-04,-2.730013569816946983e-03,-2.301434054970741272e-03,-7.408049423247575760e-04,4.634216311387717724e-04,-1.214700096170417964e-04,1.245299004949629307e-03,-1.167167560197412968e-03,-1.530414097942411900e-03,-1.842703903093934059e-03,-6.262979004532098770e-04,-6.828311597928404808e-04,1.768370391800999641e-03,-2.393507631495594978e-03,-5.301844794303178787e-04,-6.479377043433487415e-04,2.507965778931975365e-03,-4.507320991251617670e-04,-1.941037015058100224e-03,1.306593068875372410e-03,-2.969926223158836365e-03,-2.481029601767659187e-03,1.977330306544899940e-03,1.454996876418590546e-03,1.419863197952508926e-03,-1.723582972772419453e-03,1.401395886205136776e-03,1.354254432953894138e-03,2.268590731546282768e-03,1.396235660649836063e-03,-4.806066281162202358e-04,2.790161408483982086e-03,4.800107126357033849e-05,1.619397080503404140e-03,-4.442854551598429680e-04,2.556965919211506844e-03,-1.645831740461289883e-03,2.275828970596194267e-03,2.785781165584921837e-03,1.979709602892398834e-03,-1.512072165496647358e-03,-1.641833805479109287e-03,-3.539017343427985907e-04,2.553236437961459160e-03,-2.971389098092913628e-03,-2.133343601599335670e-03,-2.087859902530908585e-03,1.091424608603119850e-03,6.613399600610136986e-04,2.732606139034032822e-03,-2.946166088804602623e-03,2.516276901587843895e-03,1.533781993202865124e-03,-2.928686328232288361e-03,9.429885540157556534e-04,3.034907625988125801e-03
1.288690255023539066e-03,-1.522159553132951260e-03,-1.125420094467699528e-03,1.193666597828269005e-03,1.266037143068388104e-04,2.807742916047573090e-03,1.137759536504745483e-03,5.296347080729901791e-04,3.563012869562953711e-04,2.252669772133231163e-03,-6.655616452917456627e-04,2.647973829880356789e-03,-2.579415217041969299e-03,2.994535723701119423e-03,8.823390235193073750e-04,-1.816175878047943115e-03,2.894297242164611816e-03,-5.935552762821316719e-04,9.969155071303248405e-04,-2.278910716995596886e-03,-3.140927990898489952e-03,5.362023948691785336e-04,-1.448219409212470055e-03,1.562777324579656124e-03,-1.250148867256939411e-03,-1.270532025955617428e-03,5.421196110546588898e-04,2.011155011132359505e-03,1.815942698158323765e-03,2.401135163381695747e-03,-3.258294600527733564e-04,4.909114213660359383e-04,1.100582070648670197e-03,-2.477066882420331240e-04,9.562230115989223123e-05,-2.156157745048403740e-03,-9.591465350240468979e-04,-2.148289466276764870e-03,-5.072394851595163345e-04,1.679689856246113777e-03,8.971873321570456028e-04,2.701334189623594284e-03,-2.349705668166279793e-03,-8.238889276981353760e-04,5.421263049356639385e-04,-1.003861660137772560e-03,1.079312176443636417e-03,1.643847324885427952e-03,-1.624921802431344986e-03,6.874765967950224876e-04,-3.032174427062273026e-03,-2.449630992487072945e-03,-1.350091304630041122e-03,2.422103658318519592e-03,2.230526413768529892e-03,-3.045055782422423363e-03,1.739131286740303040e-03,-1.255691866390407085e-03,2.431816974421963096e-04,3.012843895703554153e-03,8.861118112690746784e-04,-2.162017626687884331e-03,2.624731976538896561e-03,-2.050006296485662460e-03,9.505787747912108898e-04,2.409067936241626740e-03,2.291014418005943298e-03,2.916163532063364983e-03,1.191974151879549026e-03,1.027515972964465618e-03,7.277928525581955910e-04,6.868804339319467545e-04,-2.529334975406527519e-03,-3.102523740381002426e-03,-1.802277838578447700e-04,2.565940842032432556e-03,-1.941121532581746578e-03,-3.633871674537658691e-04,2.942658029496669769e-03,3.225360997021198273e-04,-2.600193547550588846e-04,1.365663018077611923e-03,1.572568202391266823e-03,-2.058507408946752548e-03,3.163966757711023092e-04,1.109571079723536968e-03,2.146323444321751595e-03,-1.540453289635479450e-03,-3.055994864553213120e-03,1.419666572473943233e-03,2.958508674055337906e-03,-2.057416597381234169e-03,-2.995592076331377029e-03,-2.509459136490477249e-06,1.959788845852017403e-03,1.071334816515445709e-03,1.451889169402420521e-03,-8.541786228306591511e-04,2.944788895547389984e-03,1.327464124187827110e-03,-8.948042523115873337e-04,2.903496613726019859e-03,1.145882997661828995e-03,-2.011764794588088989e-03,1.026637619361281395e-03,-2.005468821153044701e-03,1.867249840870499611e-03,2.235802123323082924e-03,-2.378761302679777145e-03,1.291210879571735859e-03,-1.316081848926842213e-03,3.831821377389132977e-04,2.409547567367553711e-03,3.787915920838713646e-04,-2.584412693977355957e-03,-1.841073273681104183e-03,1.849736901931464672e-03,2.900522435083985329e-03,1.261478755623102188e-04,9.664579993113875389e-04,-6.304806447587907314e-04,-2.509743673726916313e-03,-9.723588009364902973e-04,-7.206364534795284271e-04,3.472479875199496746e-05,1.348836929537355900e-03,1.216002390719950199e-03,1.938261557370424271e-03
-2.777711953967809677e-03,-7.121665403246879578e-04,-2.081302460283041000e-03,5.963316652923822403e-04,-1.811554073356091976e-03,2.438601106405258179e-03,2.807949203997850418e-03,2.782392082735896111e-03,1.462831743992865086e-03,-1.087030046619474888e-03,-2.950182184576988220e-03,-2.030980540439486504e-03,1.772177754901349545e-03,-3.129598684608936310e-03,-2.669818699359893799e-03,1.280512893572449684e-03,2.245779382064938545e-03,2.277298335684463382e-04,1.493625692091882229e-03,-2.326230423932429403e-05,-2.020854502916336060e-03,-1.376405707560479641e-03,-2.542792353779077530e-03,-7.825446664355695248e-05,-2.201633527874946594e-03,-1.344675431028008461e-03,1.153925899416208267e-03,-2.698140917345881462e-03,-1.474968157708644867e-03,5.853102775290608406e-04,-1.133840763941407204e-03,1.213125186040997505e-03,1.442949171178042889e-03,1.027028793032513931e-05,8.659402374178171158e-04,1.584935816936194897e-03,-9.866263717412948608e-04,-3.137950086966156960e-03,1.097864122129976749e-03,1.726443064399063587e-03,-1.457730832044035196e-04,-4.260949790477752686e-04,1.239586505107581615e-03,6.240006769075989723e-04,-1.926886470755562186e-04,3.563767240848392248e-04,9.508773800916969776e-04,2.946058288216590881e-03,1.197178280563093722e-04,2.714244881644845009e-03,-7.506877300329506397e-04,9.120932663790881634e-04,-3.324822173453867435e-04,1.544834376545622945e-04,-1.239848905242979527e-03,-2.372397808358073235e-03,-7.557552889920771122e-04,-2.735928865149617195e-03,6.995527073740959167e-04,1.435454614693298936e-04,1.036771223880350590e-03,1.407697447575628757e-03,-2.468875143676996231e-03,8.117135148495435715e-04,-2.472545602358877659e-04,-1.875964342616498470e-03,-9.846470784395933151e-04,-2.868526848033070564e-03,1.696936786174774170e-03,-8.955539087764918804e-04,2.365315798670053482e-03,-1.159383333288133144e-03,-2.567945513874292374e-03,-2.915727964136749506e-04,-4.547103017102926970e-04,-2.992124529555439949e-03,6.351828342303633690e-04,2.421356504783034325e-03,1.269005821086466312e-03,-8.637543651275336742e-04,-2.257938962429761887e-03,9.939721785485744476e-04,2.395228715613484383e-03,6.078287842683494091e-04,1.880520256236195564e-03,-2.696951618418097496e-03,2.075385767966508865e-03,2.285582013428211212e-03,-2.887455513700842857e-03,3.052507818210870028e-04,2.283158479258418083e-03,-4.243126022629439831e-04,-2.150011016055941582e-03,-1.332129701040685177e-03,-8.121900609694421291e-04,-2.367463894188404083e-03,-3.294874040875583887e-04,-1.072364510037004948e-03,1.390588149661198258e-04,-1.612536259926855564e-03,-1.503918087109923363e-03,2.009341493248939514e-03,1.292119151912629604e-03,-1.113788806833326817e-03,1.893322099931538105e-03,2.626552712172269821e-03,-9.594825096428394318e-04,8.042070112423971295e-05,-1.126113464124500751e-03,1.430881093256175518e-03,1.444658380933105946e-03,7.886808452894911170e-05,-6.184353260323405266e-04,1.401848858222365379e-03,1.121799228712916374e-03,-1.809257431887090206e-03,-2.217295812442898750e-03,-2.271075965836644173e-03,-3.047361504286527634e-03,1.842610188759863377e-03,1.067795441485941410e-03,1.684859162196516991e-03,2.613498363643884659e-03,2.916092053055763245e-03,-2.116624033078551292e-03,-2.261356450617313385e-03,-2.172488719224929810e-03,-1.315232831984758377e-03
-2.577602397650480270e-03,1.037020003423094749e-03,-1.801193924620747566e-03,1.301167998462915421e-03,-2.097836928442120552e-03,1.677740219747647643e-04,-1.608122372999787331e-03,-1.842774800024926662e-03,-2.787481760606169701e-03,2.950052963569760323e-03,-7.578782970085740089e-04,3.859710413962602615e-04,3.370792255736887455e-04,-2.674930961802601814e-03,-2.803035778924822807e-03,-5.488174501806497574e-04,2.862255554646253586e-03,-2.037382917478680611e-03,4.256201209500432014e-04,-2.774760592728853226e-03,2.316389232873916626e-03,2.932962728664278984e-03,-4.035809542983770370e-04,2.199804875999689102e-03,1.293323468416929245e-03,-2.907848218455910683e-03,1.569235464558005333e-03,7.208127062767744064e-04,5.060687544755637646e-04,-1.554662012495100498e-03,-6.248631980270147324e-04,8.021575195016339421e-05,3.092730883508920670e-03,2.256565931020304561e-04,-1.715726335532963276e-03,-3.804910520557314157e-04,-1.482206746004521847e-03,-2.157186158001422882e-03,-2.271555829793214798e-03,-9.795862715691328049e-04,-1.654274296015501022e-03,-2.555252518504858017e-03,4.359792510513216257e-04,-1.863460638560354710e-03,2.375819254666566849e-03,-2.611073432490229607e-03,-1.310874940827488899e-03,-1.108173280954360962e-03,-2.264763694256544113e-03,1.206259941682219505e-03,1.807850057957693934e-04,2.576081024017184973e-04,3.604950616136193275e-04,1.432348857633769512e-03,-1.822324818931519985e-03,4.775185370817780495e-04,3.148328280076384544e-03,-1.686871866695582867e-03,1.816764357499778271e-03,-1.590748433955013752e-03,3.018111456185579300e-03,1.681228750385344028e-03,2.796285320073366165e-03,-1.442521577700972557e-03,1.362708280794322491e-03,-2.246782882139086723e-03,1.704410999082028866e-03,4.073103191331028938e-04,1.372281345538794994e-03,3.039549803361296654e-03,-2.910925075411796570e-03,-7.332782843150198460e-04,2.460621995851397514e-03,1.156950835138559341e-03,3.124367212876677513e-03,2.520142123103141785e-03,1.042503165081143379e-03,-2.075759926810860634e-03,-2.982601989060640335e-03,4.568806907627731562e-04,2.083438448607921600e-03,-1.581656048074364662e-03,1.291955122724175453e-04,-2.913538599386811256e-03,-6.873586680740118027e-04,2.257419750094413757e-03,-2.654278359841555357e-04,-2.582920715212821960e-03,3.122652182355523109e-03,8.951890049502253532e-04,2.662827027961611748e-03,1.974885119125247002e-03,-2.187507227063179016e-03,2.956451498903334141e-04,2.286534989252686501e-03,-2.284730784595012665e-03,-2.073110546916723251e-03,-1.691515673883259296e-03,1.567606814205646515e-03,2.726559294387698174e-03,-1.304586650803685188e-03,-2.822193782776594162e-03,-3.618880582507699728e-04,-2.332807052880525589e-03,-1.134476042352616787e-03,2.258378313854336739e-03,4.630881012417376041e-04,1.113440957851707935e-03,2.674238290637731552e-03,-2.110850298777222633e-03,-1.701678731478750706e-03,-2.285511465743184090e-03,2.075001830235123634e-03,8.003212278708815575e-04,-3.080019261687994003e-03,-9.260014630854129791e-04,-2.717691939324140549e-03,-3.147839102894067764e-03,-1.608180464245378971e-03,-2.232103608548641205e-03,2.141890814527869225e-03,7.817433797754347324e-04,3.142954548820853233e-03,-2.365423599258065224e-03,-1.830111868912354112e-04,1.412285258993506432e-03,-9.124555072048678994e-05,-1.941491500474512577e-03
-1.503266626968979836e-03,9.417371620656922460e-05,5.744341615354642272e-05,1.121444045566022396e-03,2.541622146964073181e-03,8.554800879210233688e-04,2.733482513576745987e-03,-1.967335352674126625e-03,-2.798957051709294319e-03,-2.737294882535934448e-03,-1.777692377800121903e-04,1.419841544702649117e-03,-4.698556440416723490e-04,-2.967373293358832598e-04,1.217097742483019829e-03,-1.516571617685258389e-03,-1.581429853104054928e-03,5.529364570975303650e-04,-1.219478785060346127e-03,-6.431269866880029440e-05,1.656214008107781410e-03,1.760703627951443195e-03,2.390728099271655083e-03,2.059803344309329987e-03,2.871904871426522732e-04,1.193795353174209595e-03,-1.366000855341553688e-03,-2.153474497390561737e-06,4.035918973386287689e-04,1.390693592838943005e-03,-5.482728010974824429e-04,2.598174382001161575e-03,-2.086669672280550003e-03,3.086031880229711533e-03,-1.226318767294287682e-03,-2.148229628801345825e-03,1.658079563640058041e-03,9.384822333231568336e-04,-1.503889216110110283e-03,-1.265934319235384464e-03,1.657547778449952602e-03,-2.704377751797437668e-03,-3.092903643846511841e-03,7.155080675147473812e-04,-2.410108922049403191e-03,-2.915608929470181465e-03,1.244795625098049641e-03,1.230882015079259872e-03,1.462213927879929543e-03,-2.420105738565325737e-03,8.902199915610253811e-04,-2.453888999298214912e-03,1.932408194988965988e-03,2.010982250794768333e-03,5.310142296366393566e-04,2.467548707500100136e-03,1.418792759068310261e-03,-3.480664454400539398e-04,-2.808613469824194908e-03,2.956002019345760345e-03,1.049562124535441399e-03,-2.090431749820709229e-03,2.445850754156708717e-03,-2.531371545046567917e-03,1.765675260685384274e-03,2.968808636069297791e-03,-3.128323936834931374e-03,-8.849011501297354698e-04,9.167128009721636772e-04,6.847959593869745731e-04,-1.554887858219444752e-04,3.480894083622843027e-04,1.287120045162737370e-03,8.036313811317086220e-04,4.870999255217611790e-04,9.969942038878798485e-04,3.043370787054300308e-03,2.848034491762518883e-03,2.065531676635146141e-03,-1.900828676298260689e-03,-1.480163424275815487e-03,-1.133031793870031834e-03,2.002566034207120538e-04,2.126318140653893352e-04,-2.151638735085725784e-03,1.879075571196153760e-04,-2.702073194086551666e-03,-2.262335037812590599e-03,-3.200518840458244085e-04,2.231596969068050385e-03,6.245404947549104691e-04,2.268050331622362137e-03,2.435907023027539253e-03,-3.034463850781321526e-03,5.462777335196733475e-04,-2.916065510362386703e-03,-2.061863429844379425e-03,2.717511670198291540e-04,1.232529059052467346e-03,-3.342675918247550726e-04,1.943516079336404800e-03,-7.892277208156883717e-04,1.530381501652300358e-03,-9.916566777974367142e-04,2.923737047240138054e-03,-1.456176862120628357e-03,9.524154593236744404e-04,-6.772727938368916512e-04,-5.598097341135144234e-04,-2.605891320854425430e-03,9.939628653228282928e-04,5.495465593412518501e-04,-1.873016241006553173e-03,-1.742327731335535645e-04,2.809589495882391930e-03,2.358315279707312584e-03,1.112142694182693958e-03,2.251445781439542770e-03,-2.956329379230737686e-03,-2.500862581655383110e-03,2.678047865629196167e-03,-3.076318418607115746e-03,-2.596174599602818489e-03,2.043429296463727951e-03,-2.933671930804848671e-03,6.943227490410208702e-04,-2.394710900261998177e-03,-2.198565285652875900e-03
7.084016688168048859e-04,3.491471870802342892e-04,-1.452767523005604744e-03,3.079356683883816004e-04,-1.278864918276667595e-03,-3.030002582818269730e-03,2.913975622504949570e-03,-3.281119570601731539e-04,-6.086470675654709339e-04,1.135173137299716473e-03,-2.533966209739446640e-03,-1.813386683352291584e-03,3.529366949805989861e-05,2.429179381579160690e-03,1.291862572543323040e-03,6.778124370612204075e-04,6.126571097411215305e-04,1.172052812762558460e-03,-2.913637552410364151e-03,3.341932024341076612e-04,-8.097880636341869831e-04,9.292822796851396561e-04,-1.041429117321968079e-03,1.257256255485117435e-03,-2.882456639781594276e-03,-9.498302097199484706e-05,2.385228173807263374e-03,2.840555040165781975e-03,2.019468229264020920e-03,2.827737713232636452e-03,1.332008163444697857e-03,2.115956274792551994e-03,2.104756655171513557e-03,2.559032058343291283e-03,-5.850268062204122543e-04,-3.104996634647250175e-03,1.114103477448225021e-03,-1.892282976768910885e-03,-2.254235092550516129e-03,2.892209216952323914e-03,8.680097525939345360e-04,1.498500350862741470e-03,1.594409812241792679e-03,1.796846161596477032e-03,-1.468067523092031479e-03,-1.600679825060069561e-03,4.040342464577406645e-04,-2.861539134755730629e-03,2.824930008500814438e-03,-1.789651229046285152e-03,-2.804977353662252426e-03,1.809208886697888374e-03,1.502534258179366589e-03,-1.257694908417761326e-03,4.778429865837097168e-04,1.937864930368959904e-03,-2.278388943523168564e-03,8.543480071239173412e-04,-9.027599589899182320e-04,2.392958151176571846e-03,1.724619942251592875e-04,-1.349475205643102527e-04,5.506656016223132610e-04,1.901624607853591442e-03,-2.306732116267085075e-03,1.927049597725272179e-03,-1.522501464933156967e-03,-5.124533781781792641e-04,1.669937977567315102e-03,-2.801613882184028625e-03,1.992095960304141045e-03,-1.117217587307095528e-03,2.169515937566757202e-03,-2.167436527088284492e-03,2.705082530155777931e-03,-2.774300519376993179e-03,2.333610085770487785e-03,-4.009800322819501162e-04,2.230548299849033356e-03,-3.073433414101600647e-03,-1.081691705621778965e-03,-1.564400270581245422e-03,-9.138676687143743038e-04,2.871113363653421402e-03,-2.442990429699420929e-03,9.097880101762712002e-04,-2.829601755365729332e-03,2.209337195381522179e-03,2.807563403621315956e-03,2.519863424822688103e-03,-4.965454572811722755e-04,2.323362976312637329e-03,3.004625905305147171e-03,3.070652252063155174e-03,2.468736376613378525e-03,-1.684202696196734905e-03,-4.718704440165311098e-05,2.617192454636096954e-03,2.039546845480799675e-03,-9.782719425857067108e-04,1.234230352565646172e-03,1.482656109146773815e-03,-1.150539377704262733e-03,-2.718688687309622765e-03,5.156561383046209812e-04,-1.348136458545923233e-03,-3.358851245138794184e-04,-7.706366595812141895e-04,-1.631371327675879002e-03,-2.858226187527179718e-03,6.199386552907526493e-04,1.697229221463203430e-03,2.756425412371754646e-03,1.269754720851778984e-03,-1.775895361788570881e-03,1.337841968052089214e-03,-1.595556968823075294e-03,-2.556985476985573769e-03,2.679348457604646683e-03,9.468792122788727283e-04,-2.687017433345317841e-03,8.946834132075309753e-04,-6.488370709121227264e-04,-2.664241474121809006e-03,1.089444151148200035e-03,-2.900021849200129509e-03,2.828105585649609566e-03,-2.552850637584924698e-03
-5.315968883223831654e-05,6.009712815284729004e-04,-1.070890721166506410e-04,-2.361509948968887329e-03,6.579508190043270588e-04,-1.753266085870563984e-03,-2.625738503411412239e-03,-3.426532493904232979e-04,1.550068613141775131e-03,-7.016735034994781017e-04,-2.359616337344050407e-03,-9.633724694140255451e-04,2.066769404336810112e-03,-2.665567910298705101e-03,-8.135315147228538990e-04,2.818736713379621506e-03,1.874127774499356747e-03,-2.925015520304441452e-03,2.549213590100407600e-03,1.396669889800250530e-03,-1.263552228920161724e-03,-1.145855523645877838e-03,1.081824186258018017e-03,1.427485141903162003e-03,-1.847916282713413239e-03,-2.854135818779468536e-03,2.751411637291312218e-03,8.803225355222821236e-04,-9.943488985300064087e-04,-1.747899921610951424e-03,-2.334527205675840378e-03,2.519047586247324944e-03,-2.032643824350088835e-04,-1.695873361313715577e-04,9.382034768350422382e-04,8.111273928079754114e-06,2.188102109357714653e-03,6.396759417839348316e-04,1.696065883152186871e-03,2.336345147341489792e-03,1.150366151705384254e-03,2.749550621956586838e-03,8.034445345401763916e-04,2.793204970657825470e-03,2.535327803343534470e-03,2.985119121149182320e-03,-2.371970796957612038e-03,-2.702776109799742699e-03,2.240812405943870544e-03,-1.256005838513374329e-03,1.974632497876882553e-03,-1.029390259645879269e-03,-2.382378792390227318e-03,1.252535148523747921e-03,-3.174205194227397442e-04,-2.587616443634033203e-03,2.031020354479551315e-03,2.928878529928624630e-04,-2.232230734080076218e-03,5.134787716087885201e-05,2.301073167473077774e-03,2.854218240827322006e-03,-1.276561873964965343e-03,7.032160647213459015e-04,-4.563695692922919989e-04,2.163958037272095680e-03,2.797739216475747526e-05,5.722761852666735649e-04,-1.916869892738759518e-03,-2.272530226036906242e-03,-1.822058926336467266e-03,-1.032866653986275196e-03,6.109466194175183773e-04,2.473676810041069984e-03,-2.079819794744253159e-03,4.644399450626224279e-05,-3.048429731279611588e-03,2.104523358866572380e-03,4.115692863706499338e-04,2.421068958938121796e-03,-9.962405310943722725e-04,1.528861583210527897e-03,9.927885839715600014e-04,-1.500133541412651539e-03,2.877629362046718597e-03,2.599396510049700737e-03,2.766414312645792961e-03,8.964823791757225990e-04,7.103503594407811761e-05,2.931579248979687691e-03,1.068827532435534522e-05,-2.093979390338063240e-03,-4.339776060078293085e-04,-1.563572674058377743e-03,9.245570399798452854e-04,1.292783417738974094e-03,1.003331970423460007e-03,-8.628643699921667576e-04,-1.301521784625947475e-03,9.810843039304018021e-04,2.088353969156742096e-03,-2.584865549579262733e-03,-3.070930717512965202e-03,-2.335226628929376602e-03,2.765740966424345970e-03,2.371380571275949478e-03,-5.126559408381581306e-04,-2.563410205766558647e-03,2.939040772616863251e-03,9.106494835577905178e-04,1.259375829249620438e-03,-3.079378744587302208e-03,-3.482365282252430916e-04,-6.454688264057040215e-05,2.056421944871544838e-03,1.083330484107136726e-03,-2.224557334557175636e-03,-2.095068804919719696e-03,-1.766681089065968990e-03,2.681225305423140526e-03,-5.428352160379290581e-04,-1.597045804373919964e-03,1.781332888640463352e-03,-1.736455014906823635e-03,2.577558858320116997e-03,2.812780730891972780e-04,-1.798594486899673939e-03,2.314474200829863548e-03
-8.112924406304955482e-04,2.343842526897788048e-03,2.838629297912120819e-03,1.698835287243127823e-03,1.638369401916861534e-03,3.139135427772998810e-03,1.937596127390861511e-03,6.498167203972116113e-05,-2.246329560875892639e-03,5.212554824538528919e-04,-1.760909450240433216e-03,-1.670586061663925648e-03,1.239213743247091770e-03,-5.801136139780282974e-04,-1.747226691804826260e-03,2.001640619710087776e-03,-1.429315540008246899e-03,-2.180915558710694313e-03,3.106883028522133827e-03,1.995280617848038673e-03,1.606858684681355953e-03,-2.115716459229588509e-03,-1.992375589907169342e-03,-9.466854971833527088e-04,1.047167228534817696e-03,2.581433393061161041e-03,2.475714776664972305e-03,1.174522913061082363e-03,-1.436450984328985214e-03,1.680686371400952339e-03,3.076971042901277542e-03,1.095654559321701527e-03,-9.499802254140377045e-04,6.398084224201738834e-04,-3.120139241218566895e-03,1.864074263721704483e-03,2.079606754705309868e-03,-9.015825926326215267e-04,-7.240662671392783523e-05,9.036732953973114491e-04,1.213758252561092377e-03,6.185771781019866467e-04,2.975735580548644066e-03,2.901523839682340622e-03,1.116940053179860115e-03,-2.440689830109477043e-03,-1.783700892701745033e-03,-1.200793078169226646e-03,2.979414537549018860e-03,2.646782901138067245e-03,1.662153634242713451e-03,-8.513808716088533401e-04,1.138444757089018822e-03,-1.419711392372846603e-03,-1.304207136854529381e-03,1.764182583428919315e-03,-2.888141199946403503e-03,1.503311214037239552e-03,-7.674696971662342548e-04,-1.545827137306332588e-03,-2.820539055392146111e-03,-1.732089905999600887e-03,-5.554710514843463898e-04,3.015818074345588684e-03,-3.137308638542890549e-03,-2.175807952880859375e-03,1.761903986334800720e-04,-1.456830301322042942e-03,-1.979870721697807312e-03,1.746599882608279586e-04,-2.609670395031571388e-03,1.043778411258244887e-05,-2.119210548698902130e-03,1.961573958396911621e-03,-1.195581862702965736e-03,-6.991158443270251155e-05,-3.512063631205819547e-05,-8.983782026916742325e-04,2.242409624159336090e-03,2.854092279449105263e-03,-2.730090054683387280e-04,2.157594542950391769e-03,-1.493840129114687443e-03,-1.205159816890954971e-03,-5.048692692071199417e-04,1.851865788921713829e-03,4.494140011956915259e-05,-1.784366322681307793e-04,6.296071805991232395e-04,-1.306908437982201576e-03,-2.103613223880529404e-03,-2.911611460149288177e-03,1.639844966121017933e-03,-1.335088047198951244e-03,5.874924245290458202e-04,2.244003582745790482e-03,2.528927056118845940e-03,2.729228697717189789e-03,1.380031899316236377e-04,-1.461481326259672642e-03,4.919958882965147495e-04,2.561545697972178459e-03,1.343294978141784668e-03,-1.591833308339118958e-03,6.259668152779340744e-04,1.070211990736424923e-03,-7.764474721625447273e-04,1.424344489350914955e-03,3.065737430006265640e-03,2.219534479081630707e-03,2.327629597857594490e-03,9.842514991760253906e-04,2.530474739614874125e-04,9.465154143981635571e-04,9.088546503335237503e-04,-1.394011662341654301e-03,2.714181784540414810e-03,-1.522758160717785358e-03,-4.286427865736186504e-04,-2.801297232508659363e-03,6.756833172403275967e-04,-1.752738258801400661e-03,3.361131894052959979e-05,-2.054750686511397362e-03,-2.753317821770906448e-03,1.405435614287853241e-03,-1.954195089638233185e-03,2.546091796830296516e-03
7.020548800937831402e-04,2.379976649535819888e-04,2.588086994364857674e-03,-2.296244492754340172e-03,-1.046533579938113689e-03,2.984408056363463402e-03,3.804627340286970139e-04,1.859719865024089813e-03,2.390479668974876404e-03,-1.455161604098975658e-03,-1.013537170365452766e-03,1.741664484143257141e-03,-2.619876177050173283e-04,-7.727761840214952826e-05,-1.171097159385681152e-03,-6.443651509471237659e-04,-3.046973375603556633e-03,-2.294831676408648491e-03,9.181689529214054346e-05,3.149230731651186943e-03,-9.549731621518731117e-04,9.408505284227430820e-04,-2.836614847183227539e-03,7.204601424746215343e-04,1.714334473945200443e-03,1.438678940758109093e-03,-1.558770425617694855e-03,1.233724760822951794e-03,3.799778642132878304e-04,2.477729925885796547e-03,-3.061279421672224998e-03,-3.727536532096564770e-04,2.913847332820296288e-03,1.271079294383525848e-03,-1.086034928448498249e-03,-2.837288659065961838e-03,6.835965323261916637e-04,-1.847266685217618942e-03,2.379305427893996239e-03,-9.957485599443316460e-04,7.239967817440629005e-04,1.073495950549840927e-03,-2.108649117872118950e-03,1.907958416268229485e-03,-2.155945403501391411e-03,3.017767332494258881e-03,1.739294617436826229e-03,-2.338122809305787086e-03,-4.120979428989812732e-05,-2.074080286547541618e-03,-2.951171714812517166e-03,1.973331905901432037e-03,-2.198387810494750738e-04,1.035816618241369724e-03,-7.504916284233331680e-04,2.548009622842073441e-03,1.266629260499030352e-04,1.370734418742358685e-03,2.497342880815267563e-03,6.970093236304819584e-04,-2.709062304347753525e-03,1.988437958061695099e-03,-1.618693349882960320e-03,2.909278264269232750e-04,-7.354379631578922272e-04,6.786019657738506794e-04,2.705276710912585258e-03,2.106093568727374077e-03,-1.590041560120880604e-03,2.536921761929988861e-03,-2.787892706692218781e-03,1.064525218680500984e-03,-1.891394029371440411e-03,3.112868173047900200e-03,-2.230735728517174721e-03,7.708356133662164211e-04,1.623030169866979122e-03,2.534640487283468246e-03,-2.013737801462411880e-03,-4.294414247851818800e-05,2.592632081359624863e-03,2.882465720176696777e-03,-1.404067268595099449e-03,2.668252680450677872e-03,-1.630160259082913399e-03,-8.685085922479629517e-04,8.669617236591875553e-04,1.044720178470015526e-03,2.548287156969308853e-03,-8.261819020844995975e-04,2.096043899655342102e-03,2.698646858334541321e-03,2.398179844021797180e-03,-2.045400906354188919e-03,-1.682615606114268303e-03,3.630384890129789710e-05,-3.146054456010460854e-03,-2.459646901115775108e-03,-1.770297240000218153e-04,2.271797508001327515e-03,-2.682561753317713737e-03,2.106045139953494072e-03,-1.314829918555915356e-03,-2.506904071196913719e-03,2.346287015825510025e-03,-1.660848152823746204e-03,-2.455648267641663551e-03,8.377523045055568218e-04,2.704388694837689400e-03,3.837398253381252289e-04,1.118765096180140972e-03,2.406719373539090157e-03,1.383442897349596024e-03,1.884332392364740372e-03,-3.108006436377763748e-03,-1.316280919127166271e-03,2.127682790160179138e-03,3.146012604702264071e-04,2.312635071575641632e-03,1.032424857839941978e-03,9.434504900127649307e-04,-5.920716794207692146e-04,4.541867747320793569e-05,-2.409163629636168480e-03,1.946881879121065140e-03,-4.117269709240645170e-04,-3.035356057807803154e-03,-6.639856146648526192e-04
